{
    "InputCount": 72,
    "OutputCount": 26,
    "Layers": [
        {
            "Neurons": [
                {
                    "Bias": 0.006864866074540743,
                    "Weights": [
                        0.18162415186240907,
                        0.0029092108171043045,
                        -0.036642355951103864,
                        -0.3430127734432906,
                        -0.3832163730935766,
                        -0.08065284732722955,
                        0.23118539161238977,
                        0.10859696731928575,
                        0.030881493992914424,
                        0.19981413661933967,
                        0.42230074898018954,
                        0.34894199089649913,
                        -0.5729211375798319,
                        -0.42309116680745906,
                        -0.01791794442217742,
                        -0.2523092156554231,
                        0.023573163265823326,
                        -0.08185835524039223,
                        0.34468071989318516,
                        -0.3215452057470878,
                        0.7257830429821285,
                        -0.020643928256361212,
                        0.6064755497367843,
                        -0.578886412952473,
                        0.1339514547887602,
                        0.07792676389076475,
                        0.004261333330639552,
                        0.38992471150191943,
                        -0.18162894773947336,
                        0.32854761528298815,
                        0.32035756736108656,
                        0.0851772254599471,
                        -0.03673240941737696,
                        0.6472302202440109,
                        -0.11800518624833917,
                        -0.27974573251702745,
                        0.08766564690977138,
                        -0.46017981539792174,
                        0.18979217519380315,
                        -0.31217122263193536,
                        -0.8084656297062224,
                        -0.766217997370131,
                        -0.16301629378456006,
                        0.20065900029726813,
                        -0.013832739009759966,
                        0.48040401378732034,
                        -0.7008685037084338,
                        0.38924860387352944,
                        -0.5606494376210888,
                        -0.04277230331737053,
                        -0.6119976687414675,
                        0.9679900795498403,
                        -0.11387554256201118,
                        -0.1508689476685681,
                        -0.24843317661917075,
                        -0.027023960936108465,
                        0.05676625210348246,
                        0.01709474253285474,
                        0.03381872186326153,
                        0.1217536979782935,
                        0.021798190838868182,
                        -0.15641064693554527,
                        0.022790335169986447,
                        0.12271309750797088,
                        0.14394246583030973,
                        0.22880985785188362,
                        0.22380635656307457,
                        -0.10979672111722266,
                        0.14123068187162072,
                        0.07854448403244374,
                        -0.19508084456105684,
                        -0.22678700752121625
                    ],
                    "ActivationFunctionClass": "DotML.Network.HyperbolicTangent, DotML, Version=1.0.0.0, Culture=neutral, PublicKeyToken=null"
                },
                {
                    "Bias": -0.12445268590262534,
                    "Weights": [
                        0.08035748656574397,
                        -0.28289899573993615,
                        -0.2579945854056806,
                        -0.1220222579586633,
                        -0.2733883433041237,
                        -0.022399308828631264,
                        0.038957053004761016,
                        0.22773550706246506,
                        0.19886929585340188,
                        -0.022086441350434204,
                        -0.03674672187725753,
                        0.417392096227586,
                        0.15617254839998215,
                        0.05080352674455971,
                        -0.026840075079039512,
                        -0.005708320955485024,
                        0.2581917811335689,
                        0.24363856288347055,
                        0.0674056417726845,
                        0.1866875550119759,
                        -0.0005004582631860822,
                        0.05467483872124865,
                        -0.2724850190534113,
                        0.14390346101398058,
                        0.11824273542736702,
                        0.09893213069692479,
                        0.3244537954802791,
                        0.42737640593588216,
                        -0.11999041530243108,
                        -0.13527651054989914,
                        -0.05528941603679745,
                        -0.24572699766466563,
                        -0.08883130297315024,
                        0.3222746626316887,
                        0.23356509336905854,
                        0.20251694037074094,
                        0.1470630844333303,
                        0.282151948964604,
                        0.23677447602900384,
                        -0.032975515376535314,
                        -0.07434878503249938,
                        0.1368118418305854,
                        0.2591127598739922,
                        -0.08738799985226044,
                        -0.14005362785935313,
                        -0.04452529098630455,
                        0.08472360041941636,
                        -0.260128056218163,
                        -0.1420071807288598,
                        -0.03421952821328691,
                        0.2713373396111152,
                        0.020075073618009923,
                        0.19804402628663245,
                        0.12110139020423462,
                        0.22224097819400787,
                        0.21345859194872882,
                        0.5824520785209943,
                        0.05510671200344151,
                        0.14762162170217338,
                        0.08575660171622222,
                        0.06251507585728118,
                        0.13124067429636058,
                        0.0683991703577093,
                        0.15702897535172747,
                        -0.057057751754828065,
                        0.022725991222084307,
                        0.11103392651140485,
                        -0.011573020949586335,
                        0.1811552692421862,
                        0.17886343671626773,
                        0.14105091781487122,
                        0.15546694730327246
                    ],
                    "ActivationFunctionClass": "DotML.Network.HyperbolicTangent, DotML, Version=1.0.0.0, Culture=neutral, PublicKeyToken=null"
                },
                {
                    "Bias": 0.04243652309848441,
                    "Weights": [
                        0.010163038251436584,
                        0.20397968008774567,
                        0.0531307636015243,
                        0.019280532446148458,
                        -0.31504316407768734,
                        -0.16804753581066326,
                        0.45017880803954463,
                        -0.04863294313684458,
                        -0.253296670837721,
                        0.36927827653842166,
                        -0.03180460645486183,
                        -0.03435710545578601,
                        0.0024464488411575975,
                        0.06321148047514061,
                        0.12393099985668568,
                        -0.19828576317896637,
                        -0.04874184695093508,
                        0.02413731068485604,
                        0.0264235613067309,
                        -0.05305491338579639,
                        0.07656636954558016,
                        -0.21845504207600666,
                        -1.2015049137133116,
                        0.6042641156264534,
                        -0.5256235723480385,
                        -0.01735707867962333,
                        -0.027850573920287214,
                        -0.003989831958995324,
                        -0.08782841813172335,
                        0.18395852712622948,
                        -0.14112045562175704,
                        -0.3532947220411931,
                        -0.10669486319897045,
                        -0.5721329848333236,
                        -0.21012666679021266,
                        -0.30866988483676033,
                        0.21064906676158815,
                        -0.3809716948168677,
                        -0.2411966771898583,
                        -0.36883915806680473,
                        -0.23894298131385025,
                        -0.3344509151015654,
                        0.20721047653091926,
                        0.17849796986850544,
                        -0.11813229010558293,
                        -0.04563596126007067,
                        -0.46540468740128127,
                        -0.11215281046017384,
                        0.03015684366369348,
                        -0.2582856493072325,
                        -0.6433723876724475,
                        -0.1790730547548713,
                        0.12761955751177503,
                        -0.07477516051041205,
                        -0.053067828705696665,
                        -0.11891953884044226,
                        0.03839503812631553,
                        0.04827320321592001,
                        0.023186354893479432,
                        -0.08448829957960524,
                        0.12812515945775285,
                        -0.3611638842855404,
                        -0.2045635126163873,
                        -0.021866428459100338,
                        0.04241282738755195,
                        0.01962794736268535,
                        -0.22581857185767576,
                        0.3278502789095062,
                        0.04128570813474088,
                        0.01621726017870301,
                        -0.014503037350625093,
                        0.03761051438832912
                    ],
                    "ActivationFunctionClass": "DotML.Network.HyperbolicTangent, DotML, Version=1.0.0.0, Culture=neutral, PublicKeyToken=null"
                },
                {
                    "Bias": -0.0008644149534099049,
                    "Weights": [
                        -0.5037549313799684,
                        0.03712845210408142,
                        0.12455238714147436,
                        0.057871654965643345,
                        0.011871084077117188,
                        -0.26005848425660266,
                        -0.010988920754887388,
                        -0.43523051810716645,
                        0.13425636082377862,
                        0.0338256678385298,
                        0.1768956769538902,
                        -0.36940022556077484,
                        -0.23601491454285145,
                        -0.0710225287406747,
                        0.7407201198285217,
                        -0.09092009555472115,
                        0.04757427386536179,
                        -0.07296730644076337,
                        0.23239525965913688,
                        -0.09968920908552058,
                        0.25206887467238054,
                        -0.27652107396954956,
                        -0.11541140275155677,
                        0.2613608783326023,
                        -0.2574083968336089,
                        0.27317518569120885,
                        0.06407184207081966,
                        0.07671177983120876,
                        0.17321112730181965,
                        0.2988448367183681,
                        0.23356416554883047,
                        0.5715643530732949,
                        0.4061810717168221,
                        -0.6162266882623489,
                        0.13374007680453814,
                        -0.11557634606013964,
                        -0.2285109616437206,
                        -0.47934766150545643,
                        -0.05455353916743149,
                        0.04058340418536988,
                        0.41079877160845707,
                        -1.082856771974379,
                        -0.28644900313712146,
                        -0.06034403306207261,
                        -0.3584972309311886,
                        -0.6720648159829729,
                        -0.6483714390588081,
                        0.1491993201884615,
                        -0.15136191200119775,
                        0.010852377774328802,
                        -0.5054674386072355,
                        -0.9411396865188716,
                        -0.21122599746875625,
                        -0.1007691931235176,
                        0.12565841211868534,
                        0.17383634207140286,
                        -0.18223215132710335,
                        0.09237585475533443,
                        0.1393738733182464,
                        0.34126821372300725,
                        0.034112996506352015,
                        -0.07839852963752408,
                        0.3151542926502751,
                        -0.06581773178761488,
                        0.016037357689463235,
                        -0.09457254703221761,
                        -0.07961199344249115,
                        0.2536642974068894,
                        -0.12114718419528935,
                        0.14404674683907653,
                        -0.23284301312448002,
                        0.08664877528561578
                    ],
                    "ActivationFunctionClass": "DotML.Network.HyperbolicTangent, DotML, Version=1.0.0.0, Culture=neutral, PublicKeyToken=null"
                },
                {
                    "Bias": -0.2451006623506433,
                    "Weights": [
                        0.131335520247001,
                        -0.1796002743459962,
                        -0.0869414495327971,
                        0.08572962312402763,
                        0.17103618196470663,
                        -0.15827944624589177,
                        -0.10115982759250808,
                        0.365944245084502,
                        0.2972417244304841,
                        -0.07004519256470688,
                        0.05761857934087086,
                        0.10433050389272162,
                        0.2097734534821902,
                        -0.1727954306519975,
                        -0.05470214049748602,
                        -0.07123508653519613,
                        0.22467488838000985,
                        0.1374555790066224,
                        0.3621888373834303,
                        -0.17226211760214846,
                        0.15084540007555905,
                        0.24069529551960697,
                        0.16642978487421692,
                        -0.027992461383339617,
                        0.11080405420961557,
                        0.3617497113611445,
                        0.13221905843336487,
                        0.3296185575130513,
                        0.04077499286627659,
                        0.007644685228260983,
                        0.29920558609969317,
                        0.11049999862296628,
                        -0.01235023539704206,
                        0.4591064875853081,
                        0.0976476826940657,
                        0.25055708557555373,
                        0.148080363355607,
                        -0.020032384223727637,
                        -0.2753502430715377,
                        0.08679499578820955,
                        0.01235496721397272,
                        0.1298526132691041,
                        0.07933513310192113,
                        0.361862183272813,
                        0.07533163067466471,
                        0.366367240177548,
                        -0.07289237011046001,
                        0.18680914737193857,
                        0.22753740165126704,
                        0.30342071137571197,
                        -0.18802839474446206,
                        0.06304415509755626,
                        0.3557224059679233,
                        0.09343268136641271,
                        0.3918105110302687,
                        0.22921489098570794,
                        0.22693224377728918,
                        0.0910833791985751,
                        0.2730708483383236,
                        0.5052348284281946,
                        0.2613551303224036,
                        0.23355564889179728,
                        0.14160327150737181,
                        0.0705131311558068,
                        0.5060427221568304,
                        0.24947564960505916,
                        0.43056042121077615,
                        0.3778366717317279,
                        0.11860726491970454,
                        -0.099329104563887,
                        0.37167449090248533,
                        0.30443567545159705
                    ],
                    "ActivationFunctionClass": "DotML.Network.HyperbolicTangent, DotML, Version=1.0.0.0, Culture=neutral, PublicKeyToken=null"
                },
                {
                    "Bias": -0.04322189570254989,
                    "Weights": [
                        0.016348327367880198,
                        -0.09531029368921062,
                        -0.12699444164606055,
                        0.4434926299045464,
                        0.19613894083608233,
                        0.043552644583261926,
                        0.6313051323269518,
                        0.025514132576491145,
                        -0.04537785971493945,
                        -0.3329824713719206,
                        -0.026323891606974948,
                        0.08717633872164102,
                        0.686880217554402,
                        0.0766128710621736,
                        -0.6991363838186821,
                        -0.12371433708370444,
                        -0.07879874412930227,
                        -0.030319775169499883,
                        -0.050591760711879374,
                        0.02223484420379881,
                        -0.27194982669066226,
                        0.2505849947175681,
                        -0.25184676582515686,
                        0.22932193709933177,
                        0.25472527035138737,
                        -0.3754879261562183,
                        0.01174380546062137,
                        0.3173467714892805,
                        -0.11772118481951352,
                        -0.20951831808614682,
                        0.135895993541326,
                        0.831738974405271,
                        0.962051650411117,
                        -0.31966979415121577,
                        -0.044325546377584915,
                        0.22415127975702362,
                        -0.23185208435683266,
                        -0.09935588502864331,
                        -0.4437465391638965,
                        -0.07083589095057113,
                        0.38992759567557733,
                        -0.4389563411429447,
                        -0.006617784161012344,
                        -0.001712301740703916,
                        -0.003303890775096328,
                        0.03856054528654802,
                        -0.13501559504875846,
                        -0.07505649366461173,
                        0.47723657104848693,
                        0.38488181539312916,
                        0.004989559850073537,
                        -1.1450570547969672,
                        0.044919056209793376,
                        0.051415876729415264,
                        -0.014809617851296034,
                        0.22726485166682667,
                        -0.021450967373179173,
                        0.04039833159082329,
                        0.04333908473679765,
                        -0.06696254951999023,
                        0.0906324818494885,
                        -0.029443738360018228,
                        -0.11534767516390815,
                        0.07144170856215898,
                        -0.023233738967827388,
                        0.31889416746792265,
                        0.0343639536190819,
                        0.35892537055147733,
                        0.15743350851982915,
                        -0.011941829125956809,
                        0.0008672242329234031,
                        0.01731229457679854
                    ],
                    "ActivationFunctionClass": "DotML.Network.HyperbolicTangent, DotML, Version=1.0.0.0, Culture=neutral, PublicKeyToken=null"
                },
                {
                    "Bias": 0.04366646940961241,
                    "Weights": [
                        -0.001079025450405313,
                        0.04003871112196493,
                        -0.1463352846229531,
                        0.34521540011199986,
                        -0.07717808374878289,
                        -0.1208502675368935,
                        -0.15001256801147117,
                        -0.35772243457697445,
                        0.003957697711632058,
                        0.136764058682727,
                        0.07933980665438956,
                        0.13171718214319056,
                        -0.2750492975520101,
                        -0.10222546065134612,
                        0.15031650513486944,
                        0.19377304874263546,
                        -0.13361944927711075,
                        -0.10145894341086185,
                        -0.14150404766043972,
                        0.09044802545915916,
                        0.0005827094543758571,
                        0.2613777808811098,
                        0.2499453422849397,
                        0.18148851352316653,
                        -0.09890515769615076,
                        0.11390963073829531,
                        -0.24174316809728813,
                        -0.022031739692985816,
                        0.010751880178516532,
                        -0.17078723397482137,
                        -0.33817290682882833,
                        0.007810406128847121,
                        0.24975155145894473,
                        0.08563123902816351,
                        -0.017355269448855837,
                        -0.34033965459435517,
                        0.27956956606167344,
                        -0.04022026980397897,
                        0.009533837296205149,
                        0.30282730822112497,
                        -0.004033762493172713,
                        -0.12217687674254661,
                        0.1586186886738713,
                        -0.1679050732441993,
                        0.045694194906950134,
                        -0.030262032976889983,
                        -0.09657585107713633,
                        0.24271755508995935,
                        0.14702756772726788,
                        0.0014486620260495448,
                        -0.1565962146128249,
                        -0.20674446162207022,
                        -0.3012128475732965,
                        -0.1091458107465857,
                        -0.27793153758119243,
                        -0.05505147003407168,
                        -0.2528388546007953,
                        -0.10277771991260125,
                        -0.004756074223176694,
                        -0.10159154420478268,
                        -0.46543250003478404,
                        -0.043424774856445664,
                        0.006319969722890764,
                        -0.09097328505282022,
                        -0.2193550708870916,
                        0.06490292760185626,
                        0.017298834171092427,
                        0.2772147071290704,
                        -0.07238898540029749,
                        0.05941059922278713,
                        0.006248667237533712,
                        -0.059997789556159475
                    ],
                    "ActivationFunctionClass": "DotML.Network.HyperbolicTangent, DotML, Version=1.0.0.0, Culture=neutral, PublicKeyToken=null"
                },
                {
                    "Bias": 0.08922131304910129,
                    "Weights": [
                        -0.3025598641122524,
                        0.029395061226330028,
                        0.024899498043360092,
                        0.06584925746449735,
                        0.023487348106488032,
                        0.09898051230478952,
                        -0.2769907901700272,
                        -0.45812381969257204,
                        -0.28042393474420485,
                        0.0410176383419594,
                        0.2000400107015304,
                        -0.07173368697391187,
                        0.048726279084496865,
                        -0.10872446854771513,
                        0.01229761123899757,
                        0.288310146245913,
                        -0.19333949212124638,
                        -0.1713230547373256,
                        -0.03526196442289724,
                        -0.18185242790738373,
                        0.24010091793519941,
                        -0.1032699899403287,
                        0.030728857334335044,
                        -0.22952112920732756,
                        -0.013975008500033062,
                        0.1373748865893514,
                        0.05130174502905331,
                        -0.32349850353310355,
                        -0.25108673065529524,
                        0.049188707379672236,
                        -0.14124899904741503,
                        0.08593145824930858,
                        0.029769592342948938,
                        -0.08013046509547032,
                        -0.3153485716167367,
                        -0.2580972526923207,
                        -0.08476753471974662,
                        -0.14782156047873293,
                        -0.030422493312849685,
                        -0.15205994232081796,
                        0.1499654190523876,
                        -0.0595056414011928,
                        -0.14484205660851748,
                        -0.09186206431590611,
                        -0.19496558045467913,
                        -0.03269724609620889,
                        -0.13811259680963575,
                        0.046121574081574274,
                        0.1874378618467454,
                        -0.009330436466072336,
                        -0.2508230250782604,
                        -0.062298168152194786,
                        -0.06582107840342147,
                        -0.11055420987399363,
                        -0.04033739898659444,
                        -0.09360097148828049,
                        -0.06367869453808984,
                        -0.10622760797700846,
                        -0.1688701899505766,
                        0.08811000122392683,
                        -0.2866525310189994,
                        0.11557898595421705,
                        -0.0427159078637403,
                        -0.09515872909013522,
                        -0.27758164976985517,
                        -0.18399783535452022,
                        -0.1951680197284594,
                        -0.1240891989840587,
                        0.11336986184768404,
                        -0.1492170242428332,
                        0.14630741612341683,
                        0.13724554841760803
                    ],
                    "ActivationFunctionClass": "DotML.Network.HyperbolicTangent, DotML, Version=1.0.0.0, Culture=neutral, PublicKeyToken=null"
                },
                {
                    "Bias": 0.02891804777711426,
                    "Weights": [
                        0.2721272341899161,
                        0.12550830638452173,
                        0.09912293387070793,
                        0.2826894407053209,
                        0.08193075087684691,
                        0.23952145363260716,
                        0.1552025691156559,
                        -0.042549763739263835,
                        -0.0978903860182412,
                        -0.05668121697065115,
                        -0.28810554850848996,
                        -0.24228343006346273,
                        0.4380346123523063,
                        0.5716348069739833,
                        -0.09816917059225157,
                        -0.17714062175388978,
                        0.1758048581733374,
                        -0.1963250965856726,
                        0.37894100778363843,
                        -0.03841116644926208,
                        0.0026761289981379398,
                        0.35050317924152735,
                        0.1386888698133085,
                        0.16487646429096853,
                        0.6138922106187074,
                        -0.3375291105582579,
                        -0.052017467895164066,
                        0.0961155788814559,
                        0.21633313293319778,
                        -0.5101349884694298,
                        0.47219768993928507,
                        -0.131609563735307,
                        0.6996267573859138,
                        -0.1528707339307011,
                        -0.16527851954485778,
                        0.30579927367224086,
                        0.27921934365764317,
                        0.18737880712900473,
                        0.24697607356046342,
                        -0.058447454244593855,
                        -0.6440341124387023,
                        -0.05452531255936875,
                        -0.017847857642364875,
                        -0.09523544173738883,
                        -0.08965263756259596,
                        0.6225440612424,
                        0.016514325235362764,
                        -0.2195808173423311,
                        -0.09876589936157028,
                        -0.25769262468159704,
                        -0.2557412943773519,
                        0.7544789793117619,
                        -0.007709617268238337,
                        0.07055752904792877,
                        -0.07579456870113488,
                        -0.16616350365118293,
                        -0.028227075502763845,
                        -0.2502616464540412,
                        -0.04752269055686878,
                        -0.015273091976346114,
                        0.1349294534093056,
                        0.004286224514391867,
                        -0.04883656960836079,
                        -0.2250522994261968,
                        -0.020834059587505508,
                        -0.05098849773055911,
                        -0.17517332857621104,
                        -0.12709455468915085,
                        0.24157622164730236,
                        0.12170723768032171,
                        -0.2919165137495768,
                        -0.20704039027506704
                    ],
                    "ActivationFunctionClass": "DotML.Network.HyperbolicTangent, DotML, Version=1.0.0.0, Culture=neutral, PublicKeyToken=null"
                },
                {
                    "Bias": 0.027836885368390775,
                    "Weights": [
                        -0.2446255467180774,
                        0.036905629373109004,
                        -0.32115425050647134,
                        -0.28201333674487855,
                        -0.20959951592570467,
                        0.2311010828764893,
                        -0.4302669201636536,
                        0.22914475869131443,
                        -0.005964887642289657,
                        -0.08915065054447195,
                        0.11643203805969836,
                        0.31710246350781984,
                        -0.5043384616964656,
                        0.47612756649677607,
                        0.3631537581218928,
                        -0.039680285052627516,
                        0.017414588554978145,
                        0.08778807890400624,
                        -0.2608976695593276,
                        0.14321319562031945,
                        -0.4497194980510016,
                        0.033998588754085325,
                        0.43514371342993136,
                        -0.10165819588910809,
                        -0.09482162713341726,
                        -0.16662122777912627,
                        -0.07777717108456363,
                        -0.6084158594182769,
                        0.15229126248957683,
                        0.19143524342413773,
                        0.1781973137297019,
                        -0.14007667244098185,
                        -0.5164038638221786,
                        0.32178585025397893,
                        -0.06332538665710154,
                        0.14052652911479227,
                        -0.6262639199221582,
                        0.3609935104057666,
                        0.19405888644813354,
                        -0.08252682245093164,
                        0.20976512500363018,
                        -0.3824514792959353,
                        -0.023317989597789184,
                        -0.13954781324930773,
                        -0.07117845316128181,
                        -0.19058530065171983,
                        -0.20378896445567155,
                        -0.16385512053505294,
                        0.04555770935961544,
                        0.07926526433380111,
                        -0.09368993901316004,
                        0.14361660707128596,
                        -0.11972722946798471,
                        -0.0790026628046807,
                        -0.019983954466326843,
                        -0.011520235704383874,
                        0.13302411740843104,
                        0.1032053756434851,
                        0.08299713405350952,
                        0.09453872008596832,
                        0.08569468366913548,
                        -0.03575068233568148,
                        -0.23713922137571447,
                        -0.11500435336307362,
                        -0.16798542208206754,
                        0.08624256656299563,
                        0.08899542036072387,
                        -0.11752185911435127,
                        -0.011060090511679603,
                        -0.05454648762181654,
                        0.023386188960350482,
                        -0.20905728955956768
                    ],
                    "ActivationFunctionClass": "DotML.Network.HyperbolicTangent, DotML, Version=1.0.0.0, Culture=neutral, PublicKeyToken=null"
                },
                {
                    "Bias": -0.11011979276865455,
                    "Weights": [
                        -0.20076183249662535,
                        -0.06690253274156979,
                        -0.10758204152245915,
                        0.02334051467572557,
                        -0.05102654259393251,
                        -0.1936171904317722,
                        -0.3025200286933039,
                        0.34043766728251884,
                        0.07281041371721478,
                        -0.13952309604864746,
                        0.02777242868867887,
                        0.06469365483979946,
                        -0.004613395039095533,
                        -0.17191949647708774,
                        0.22821064973383756,
                        -0.05682721681035684,
                        0.08940341459990167,
                        0.2951917656070301,
                        0.07085929476855565,
                        0.2803428746647282,
                        0.10859078920352197,
                        -0.0334494426520585,
                        -0.0917377020264803,
                        0.28752667730243553,
                        -0.0983824624391032,
                        0.08497269666528826,
                        0.08269181645974887,
                        0.10153166096874539,
                        0.05568598686897784,
                        -0.23253728414341804,
                        0.11129320485449404,
                        -0.33440585869765443,
                        -0.07258289882505586,
                        0.23216503867246222,
                        0.03250565780289327,
                        0.08933627000406362,
                        -0.15645227872389103,
                        0.10009857715366582,
                        -0.034558966925559334,
                        -0.12206763356943133,
                        -0.09743825713643262,
                        0.10247379609947802,
                        0.00894681836484547,
                        0.1409711747700499,
                        0.3824073703907512,
                        -0.09859456615238682,
                        0.04344005677212086,
                        0.02204985136609303,
                        0.029900307546566054,
                        0.03627266000548948,
                        0.16789985013743222,
                        -0.253729462986804,
                        0.15645170054953414,
                        0.12660992449927716,
                        0.21434527474888157,
                        0.06960122570411113,
                        0.05613327407641145,
                        0.06980150391602681,
                        0.008718513230948126,
                        -0.1982842913397236,
                        -0.026553214882393244,
                        0.18982090319501074,
                        -0.305493990171061,
                        0.025982420800844747,
                        0.038138920588679834,
                        0.26059366069477735,
                        0.143326141949249,
                        -0.004270902074746246,
                        0.3366969163635798,
                        0.09395905626351159,
                        0.2773681099054119,
                        0.11222783422925992
                    ],
                    "ActivationFunctionClass": "DotML.Network.HyperbolicTangent, DotML, Version=1.0.0.0, Culture=neutral, PublicKeyToken=null"
                },
                {
                    "Bias": 0.11030689909584249,
                    "Weights": [
                        0.02789428878389932,
                        0.09950444987163298,
                        0.0070379364082816046,
                        -0.029277916175945416,
                        -0.10326991176417402,
                        -0.12196804016928153,
                        0.06690502815698555,
                        -0.27953744490904014,
                        0.10267299124924517,
                        0.2430622714580839,
                        -0.02491339024460706,
                        0.2040393663625562,
                        0.056453847761912646,
                        -0.03997625728045945,
                        0.08449120339552921,
                        0.1741980941936105,
                        -0.04355760199936795,
                        -0.2559852030679432,
                        -0.05546473784041736,
                        0.17606882573379418,
                        -0.19310890154029542,
                        0.1360205825174673,
                        -0.15623551827614574,
                        0.008125387323554353,
                        -0.07752505558313269,
                        0.06391240759421331,
                        -0.11811458480539394,
                        -0.20480430979213687,
                        -0.13614153786766464,
                        0.09184632877527371,
                        -0.02028483531508613,
                        -0.19029264380511768,
                        -0.037960227652557466,
                        -0.059435349674367643,
                        -0.1129426493993666,
                        -0.048247729546361334,
                        0.14741665932727616,
                        -0.12398253102151205,
                        0.12198003772370769,
                        0.04453671823722169,
                        0.11788470052766276,
                        -0.023990714821837848,
                        0.042036448203744095,
                        -0.030164199437910374,
                        0.13819657556853043,
                        0.2681941315300577,
                        0.13043373546718418,
                        -0.1400718903720432,
                        -0.2841703280034011,
                        -0.022681956536162087,
                        -0.0856058077627801,
                        -0.05286278769634467,
                        -0.2089370207075738,
                        -0.04928411401790535,
                        -0.08594398554955093,
                        -0.3551702300994251,
                        0.16300593872915642,
                        -0.09936552540171409,
                        -0.19548713333496842,
                        0.1375076456999157,
                        0.01925594549636143,
                        -0.4879989460318354,
                        0.03193004329738675,
                        -0.08739071018263728,
                        -0.09497536876149706,
                        -0.06038524908115191,
                        -0.10685370535435909,
                        0.07874311636389308,
                        -0.27972571676908015,
                        -0.21747416574988965,
                        -0.1901258868010115,
                        -0.3169360873362726
                    ],
                    "ActivationFunctionClass": "DotML.Network.HyperbolicTangent, DotML, Version=1.0.0.0, Culture=neutral, PublicKeyToken=null"
                },
                {
                    "Bias": -0.06674252790281998,
                    "Weights": [
                        0.12256998889445073,
                        -0.071733922823802,
                        0.22494529602462637,
                        0.23227606403418324,
                        0.004598247826134027,
                        0.18377919414326743,
                        0.2502317520198746,
                        0.08673214392580209,
                        -0.22546631100360678,
                        0.36887032201367753,
                        0.012927092751766341,
                        0.5321296935079192,
                        0.24089128673801882,
                        0.08310285229853048,
                        -0.002009075933917064,
                        0.11488031452882244,
                        0.02589491870769767,
                        0.16387428012109176,
                        0.2818320250505273,
                        -0.08777870362273826,
                        -0.06799057910820094,
                        0.5329655760317431,
                        0.04567844427070451,
                        0.200729128360913,
                        -0.21958191967075916,
                        0.003147092654356967,
                        0.07478013697814459,
                        -0.2851940212424203,
                        0.16146832115212278,
                        0.39753373803120584,
                        0.5278844245722543,
                        0.49136442961072146,
                        -0.3621879054510857,
                        0.2876421563661481,
                        -0.04664411167250708,
                        0.19037133087800945,
                        0.03205176927483644,
                        0.2900153648782269,
                        -0.3238380400565978,
                        0.33658406525848505,
                        -0.0403273835832358,
                        0.2147853992424248,
                        0.3621960475193653,
                        -0.028649203387018606,
                        0.31885609722331176,
                        0.26507889965060094,
                        -0.09385676783091162,
                        0.14955862771987632,
                        0.35419302833156985,
                        0.0025820205239613734,
                        0.2609396330896533,
                        0.029780928299229837,
                        0.022355711429084314,
                        -0.0066731885211617995,
                        0.14947707853514622,
                        0.21472525372731133,
                        0.12075439443660677,
                        0.22752456609017346,
                        0.020140888914379883,
                        0.12169350795151598,
                        0.19643773808686243,
                        -0.011934995916457598,
                        -0.03797564559343504,
                        0.030432287902252577,
                        0.0947767177701361,
                        0.07515712927434176,
                        0.12085969326549453,
                        0.16233102833456728,
                        0.20261474811282904,
                        0.19387147006327626,
                        0.1782027900159396,
                        0.12431708052322052
                    ],
                    "ActivationFunctionClass": "DotML.Network.HyperbolicTangent, DotML, Version=1.0.0.0, Culture=neutral, PublicKeyToken=null"
                },
                {
                    "Bias": 0.09178823985574787,
                    "Weights": [
                        0.22370965500670728,
                        -0.04579820637590504,
                        -0.006797424458987723,
                        0.13462951272625925,
                        -0.011971883185146224,
                        0.008606455462136745,
                        0.14693905873984356,
                        -0.2029479491764247,
                        -0.05121995822796828,
                        -0.16307227380111924,
                        -0.06925944663907123,
                        -0.011395233654744673,
                        -0.15745948713954003,
                        0.19696823094900154,
                        -0.1483979334424517,
                        0.06878230163388292,
                        -0.025025191544318027,
                        -0.07949011306314983,
                        -0.037769161665294274,
                        -0.12652810391273,
                        0.12764817519388363,
                        -0.055048637663418845,
                        -0.0875235266058463,
                        0.047616441575445284,
                        -0.05957037063996137,
                        -0.051001867758320954,
                        -0.049370066078352426,
                        -0.20482748460638242,
                        0.02564466893231426,
                        -0.06102174324426379,
                        0.05206268317280505,
                        0.0709318184652075,
                        0.24077645320677046,
                        0.06557216720134422,
                        0.017325215498091708,
                        -0.3129837653434569,
                        0.043974127993177015,
                        0.04433087489925876,
                        0.12881719100189004,
                        0.05189165779837429,
                        -0.06112104971993665,
                        -0.037104664538637616,
                        0.023034280562012396,
                        -0.11561490412355686,
                        -0.051028365943208295,
                        -0.02345843369284827,
                        -0.032986048509729735,
                        0.1492398798746433,
                        0.03183435875964283,
                        0.10405668390003682,
                        0.025459192301684554,
                        0.10756055252722062,
                        -0.10160751348026821,
                        -0.026146865908400162,
                        -0.028442821335594917,
                        -0.25562198529387575,
                        -0.12480909691441834,
                        0.07139584743352602,
                        -0.06769397069522888,
                        -0.22513103893152273,
                        -0.10717323229435212,
                        -0.1584140644299415,
                        -0.4176486392777426,
                        -0.12827305028040978,
                        -0.18125798302998722,
                        -0.14910991638209656,
                        -0.04266962506317437,
                        -0.024025182014264974,
                        -0.15188838886733771,
                        -0.23640889576551002,
                        -0.22732596742250585,
                        -0.01858187971917032
                    ],
                    "ActivationFunctionClass": "DotML.Network.HyperbolicTangent, DotML, Version=1.0.0.0, Culture=neutral, PublicKeyToken=null"
                },
                {
                    "Bias": 0.14694287049479435,
                    "Weights": [
                        -0.2179151931281836,
                        0.3535844415684933,
                        0.2353174628310046,
                        0.14567134756932568,
                        0.10323802641194059,
                        0.1618074102051471,
                        -0.13695962474591822,
                        -0.0957813917628821,
                        -0.07440760636264358,
                        0.03672060506324667,
                        0.3294673638388424,
                        -0.14617867546284635,
                        -0.1295432249666271,
                        -0.04059767701972684,
                        0.10500049041134239,
                        0.22317400404865445,
                        0.00911681396203909,
                        -0.42763886732952755,
                        0.00993522590058642,
                        -0.028041509209837143,
                        0.15952898044751762,
                        -0.34813736397484424,
                        0.06588142734834679,
                        -0.4821011135367969,
                        -0.48803769463175734,
                        0.03067383997749047,
                        -0.2246592620902017,
                        -0.25412940661396377,
                        0.06867155255238001,
                        0.13274569925323776,
                        0.08743322343892264,
                        -0.048981965752476715,
                        -0.14450818956682943,
                        -0.469523892625281,
                        -0.18801603618591173,
                        -0.11201408730992768,
                        -0.1154069481484191,
                        -0.11962196085685306,
                        -0.17111582889352694,
                        -0.14279677527798737,
                        0.2042507091224933,
                        0.018310527895366264,
                        -0.13302962080531255,
                        0.02718835059651038,
                        -0.2186295236004604,
                        -0.244046007865169,
                        -0.12430034362295204,
                        0.1319761380144528,
                        0.13444227514744267,
                        0.04422759865390561,
                        -0.1498400845497216,
                        -0.13469184440726295,
                        -0.1978694877112271,
                        -0.25478804559437157,
                        -0.15217009969071346,
                        0.019489470061398773,
                        0.08163422773893543,
                        -0.22117081660822152,
                        -0.2746825095139647,
                        -0.08965259807290483,
                        -0.12075940753895556,
                        -0.1784295179189515,
                        -0.2540344475976006,
                        -0.2815044110535984,
                        -0.31397497008030467,
                        -0.20050977215420024,
                        0.022193729905969694,
                        0.05869964320531929,
                        -0.15757263306905778,
                        -0.2800997337304633,
                        -0.30533295832187046,
                        -0.14504179475352805
                    ],
                    "ActivationFunctionClass": "DotML.Network.HyperbolicTangent, DotML, Version=1.0.0.0, Culture=neutral, PublicKeyToken=null"
                },
                {
                    "Bias": 0.03813143078743436,
                    "Weights": [
                        -0.191675350101448,
                        -0.28636432436832726,
                        0.22652594076482876,
                        0.09423623330664625,
                        -0.1050001761565149,
                        -0.5423567217923733,
                        -0.21828537466113265,
                        0.09732538546425178,
                        -0.008929222694463381,
                        -0.12745241944839444,
                        0.24802819646727128,
                        0.12766929201226665,
                        -0.1556389546130895,
                        -0.253279721899566,
                        0.2763408018734761,
                        -0.4577102650026925,
                        -0.040769806066701095,
                        0.11536336009911836,
                        -0.041259014972957475,
                        0.20859181526001144,
                        0.024208755687983686,
                        -0.24814950265558613,
                        -0.006242304097131829,
                        0.3430096265934184,
                        0.06614589420812046,
                        -0.041185270438332186,
                        0.087446331223535,
                        -0.15556700936847864,
                        0.20152077440626662,
                        -0.12477944412757751,
                        -0.08073466991833601,
                        0.01665927410184963,
                        0.12812590889445344,
                        0.2881942985705884,
                        0.06413119217156436,
                        -0.1915376214176797,
                        -0.16256588826901672,
                        -0.17964717572224834,
                        -0.06484101934925447,
                        -0.362368134139634,
                        -0.14190567435721888,
                        0.046878903452820045,
                        -0.24494707937412988,
                        0.18238540611034834,
                        0.09412400491467478,
                        -0.0035055755978990848,
                        0.27525833789553045,
                        -0.043092550381689215,
                        -0.3111363039375218,
                        -0.1332776525479373,
                        0.0084966426929292,
                        0.29605936012641676,
                        -0.3695562529571621,
                        -0.1870043849864326,
                        -0.035181758238306216,
                        0.1290606524099828,
                        -0.08522163296585768,
                        -0.1407454573117932,
                        -0.06495330219530436,
                        0.009151243958782326,
                        -0.10186209275094717,
                        0.3187634059117763,
                        0.16559657608519054,
                        0.201188021630513,
                        -0.01420954205797305,
                        -0.19750364488648628,
                        -0.09842162322160046,
                        -0.036282676901738156,
                        0.13088098234528492,
                        -0.13340730237843335,
                        -0.04147385828539313,
                        0.10003923287267051
                    ],
                    "ActivationFunctionClass": "DotML.Network.HyperbolicTangent, DotML, Version=1.0.0.0, Culture=neutral, PublicKeyToken=null"
                },
                {
                    "Bias": 0.04677292580180454,
                    "Weights": [
                        -0.03128628661350146,
                        0.14467581198053364,
                        -0.5330898477339503,
                        -0.6335421972724227,
                        -0.6947436992006175,
                        0.16153660466769126,
                        0.31143527655117476,
                        -0.09123726515740598,
                        0.11020108261055443,
                        -0.08535385364503527,
                        -0.29139280818013147,
                        0.1837161821827314,
                        -0.347874546020954,
                        0.39316316205096447,
                        -0.3515493609322954,
                        0.15680764788721785,
                        -0.3302748648147322,
                        -0.13124064069558636,
                        0.05159830490347509,
                        0.2482572575850641,
                        0.006738972619590208,
                        0.376308425150201,
                        -0.18383063161846025,
                        0.0016100379230346235,
                        -0.12456285079045505,
                        0.015040611646816424,
                        0.0632715339756139,
                        -0.23289398662463862,
                        0.5295554081386493,
                        -0.5583982979295727,
                        -0.3538664392470978,
                        -0.3338633156398356,
                        0.01655087037139644,
                        0.19908578319269876,
                        -0.37417331848878765,
                        -0.13053238011823454,
                        0.03563963027208717,
                        -0.15437982134681638,
                        0.20707513826648272,
                        0.2472621045672636,
                        -0.04715922502205689,
                        -0.19382827653077395,
                        0.0650513763710902,
                        -0.08032349608566892,
                        -0.19406505835170462,
                        0.01595853273653228,
                        -0.19484059652362667,
                        -0.16308638053702657,
                        -0.12597165334084318,
                        0.4094395797255893,
                        -0.18665540668036645,
                        0.14080860781771548,
                        0.009015363487321614,
                        -0.1580677614248161,
                        0.12010085624229909,
                        0.17884476170122804,
                        0.09634353047987752,
                        0.022572883344194706,
                        -0.012923153269900891,
                        0.3826265652306341,
                        -0.03424333415403399,
                        0.19721443598723298,
                        0.10571955864090397,
                        0.13421138865290205,
                        -0.1964766236991271,
                        -0.3771180918785616,
                        -0.18152155984792523,
                        0.14074005788104121,
                        -0.13375247879098845,
                        0.06798638671510361,
                        0.11760734727170129,
                        -0.059481695074304376
                    ],
                    "ActivationFunctionClass": "DotML.Network.HyperbolicTangent, DotML, Version=1.0.0.0, Culture=neutral, PublicKeyToken=null"
                },
                {
                    "Bias": 0.09145169231700766,
                    "Weights": [
                        -0.3250297302986658,
                        0.2968925797443291,
                        0.5965595635997927,
                        0.26633527650858657,
                        0.14643201510831005,
                        0.1303056727453481,
                        -0.19250632604080764,
                        0.1708370001191929,
                        -0.1601889094425034,
                        0.18463580544006813,
                        0.07759777264448976,
                        -0.6504050237572646,
                        0.36031565110202296,
                        -0.6414026679891136,
                        -0.3834708765140926,
                        0.27337955445501233,
                        0.015253266697764294,
                        0.14415472210929686,
                        0.07041806149859335,
                        -0.3065259587219756,
                        0.6576814789406551,
                        -0.41334971636905254,
                        0.4969310634563244,
                        -0.38850300688572037,
                        0.249870369509004,
                        -0.018220692981307705,
                        0.10545449758055613,
                        0.28554474558568155,
                        -0.28186646674546006,
                        0.117036551420951,
                        0.06403583107505968,
                        0.64617359319568,
                        -0.030587821972501445,
                        -0.3405448339507671,
                        -0.02374218335396158,
                        -0.005947454352363668,
                        -0.1995545471668152,
                        -0.13710814451148173,
                        0.2158813099336725,
                        -0.6463037136288788,
                        -0.269008126651818,
                        0.23591142010609878,
                        -0.5663450116439034,
                        0.019777083079350968,
                        -0.049543640302636464,
                        -0.18072098182692437,
                        0.21040217067081074,
                        0.22545670919711924,
                        0.3025303454444107,
                        0.020803919015065574,
                        -0.3578034945078448,
                        -2.1619482947400352,
                        0.002294277172500885,
                        -0.05719893604257928,
                        -0.007493047450016829,
                        -0.21760769352891463,
                        0.1646923776051777,
                        -0.027189331383893355,
                        -0.06884522027591587,
                        -0.2353775061735932,
                        -0.03933473279017457,
                        -0.3149693291859471,
                        -0.15148701807353754,
                        -0.017840536124407284,
                        0.0889782079336665,
                        -0.12483288186626425,
                        -0.06754530933986506,
                        -0.2631293381340546,
                        -0.16274585694307692,
                        0.027619431727637086,
                        -0.1017752458004925,
                        -0.1341988454471134
                    ],
                    "ActivationFunctionClass": "DotML.Network.HyperbolicTangent, DotML, Version=1.0.0.0, Culture=neutral, PublicKeyToken=null"
                },
                {
                    "Bias": 0.017307783335320962,
                    "Weights": [
                        0.10307888428196257,
                        -0.012853022825342864,
                        -0.3640637660610041,
                        -0.5678550096482693,
                        -0.8265839018569778,
                        -0.33184504799714565,
                        -0.1501511508897449,
                        0.0965937499899936,
                        -0.09640783907086009,
                        0.10040439821402214,
                        -0.5234899324643547,
                        0.27364897124157045,
                        -0.2695545232437008,
                        -0.13631571777888793,
                        -0.015681454012816152,
                        -0.3399106587883999,
                        -0.002561870015798904,
                        0.1653719851630501,
                        0.4994829451738688,
                        0.1786549779252403,
                        0.03812068023896379,
                        0.1379933939412286,
                        0.08276594007359428,
                        -0.18652398738855383,
                        -0.10804158367633712,
                        0.17337193046857088,
                        -0.028846772359233903,
                        0.266255344935636,
                        0.28321120889648266,
                        0.15500800758035516,
                        0.6728248678388606,
                        0.0439755071533415,
                        -0.303795490683604,
                        0.7505045100475052,
                        0.002342032221170116,
                        -0.11106398972720607,
                        0.1883220821190423,
                        -0.5287115416504262,
                        0.19567636065251967,
                        -0.1911244690524728,
                        -0.07849899780521274,
                        -0.7291399628368428,
                        0.47410748219709664,
                        0.045422296894404565,
                        -0.11594866834557602,
                        0.27617968260178005,
                        0.02386581898691806,
                        -0.2786010970904135,
                        -0.422840840937986,
                        -0.3037512345051069,
                        -0.17088896918031435,
                        -1.6791100978453162,
                        0.09002578911854342,
                        0.07246600516441962,
                        -0.052652111934863716,
                        0.04910102176330068,
                        -0.2037159894725206,
                        -0.2201513457112593,
                        0.06053478160525666,
                        -0.0509012032352351,
                        0.013819922955125621,
                        0.07676000737625868,
                        -0.0995879488194468,
                        -0.11829530971470326,
                        0.1623064697435647,
                        -0.024106496400344356,
                        -0.0279204224257469,
                        -0.07676877010414868,
                        -0.10231729320026314,
                        0.06031438012039293,
                        -0.03567673377144269,
                        -0.015040933131074638
                    ],
                    "ActivationFunctionClass": "DotML.Network.HyperbolicTangent, DotML, Version=1.0.0.0, Culture=neutral, PublicKeyToken=null"
                },
                {
                    "Bias": 0.12326019938162378,
                    "Weights": [
                        0.12096901316052056,
                        0.36968755536212394,
                        -0.07132470746105177,
                        0.2851359460041373,
                        0.16825238302724727,
                        0.20455357791643342,
                        -0.016591091917141282,
                        -0.07973165712797065,
                        0.09121747430737137,
                        0.11488474509831567,
                        0.12077032353039253,
                        -0.16228850459330282,
                        0.2257824226033538,
                        0.09704947964481081,
                        -0.14632583842232602,
                        -0.07465797915537078,
                        -0.4114344309096235,
                        -0.059952194794346415,
                        -0.07250765884012092,
                        -0.005226849325438651,
                        0.05364290575689099,
                        -0.033546835876922414,
                        -0.2971226916141743,
                        0.16754908188661,
                        -0.24116887577719193,
                        -0.06513538025157536,
                        -0.13194332823842145,
                        0.040258834773444184,
                        0.08014781994384154,
                        -0.14215650729703727,
                        -0.39190826013267455,
                        0.06119598978902131,
                        -0.04500268361366901,
                        0.052592140985001055,
                        -0.06090441272256991,
                        -0.2396240409018408,
                        0.2020142825630766,
                        0.034010360979202216,
                        0.14320548742751227,
                        0.022270708626639667,
                        0.1769074565095622,
                        0.04788580045963877,
                        0.017164466424576714,
                        -0.020586045369912657,
                        -0.3371650242890426,
                        0.06515341552357932,
                        0.14205511572072602,
                        0.1454854239057589,
                        -0.20890284084308441,
                        0.07339047794318293,
                        0.23618818942395353,
                        0.15610207959266575,
                        0.0027561533131126087,
                        -0.13849203611060068,
                        -0.05649839056959657,
                        -0.09894168228872247,
                        -0.13133805638915746,
                        -0.010958050043945199,
                        -0.0919267051318026,
                        -0.11942535218527378,
                        0.17213813101147746,
                        -0.06310899118791899,
                        0.00931890415795433,
                        0.11357154297263183,
                        -0.20592095833549723,
                        -0.13137317171099683,
                        -0.19627910326633063,
                        -0.17768040161282606,
                        0.18720258229684666,
                        0.13297974347940866,
                        -0.2060790465442645,
                        -0.02077741334860762
                    ],
                    "ActivationFunctionClass": "DotML.Network.HyperbolicTangent, DotML, Version=1.0.0.0, Culture=neutral, PublicKeyToken=null"
                },
                {
                    "Bias": 0.08583176714157667,
                    "Weights": [
                        0.7974925583820475,
                        0.09189551441900469,
                        0.3039884843918298,
                        0.010865687842567428,
                        0.021913943081406418,
                        -0.03627056299266013,
                        0.0995724947864434,
                        -0.02608837756700674,
                        -0.30116677292402383,
                        -0.02182213251244571,
                        -0.0009187342583959917,
                        -0.205706301457794,
                        0.3947817667362588,
                        -0.7701570798588865,
                        -0.36317817319053697,
                        -0.27730170020337336,
                        0.323161054555212,
                        -0.0684507007259863,
                        -0.19182773413435383,
                        0.12924280920138898,
                        -0.20646456652915013,
                        -0.29252431051513034,
                        0.391025295804688,
                        0.11943971706600211,
                        0.1520946817118003,
                        0.16562858043948842,
                        -0.04673208304228459,
                        -0.7318889711239257,
                        0.47569258547880117,
                        0.7057112500211392,
                        -0.31290285286538605,
                        -0.4292613921806993,
                        -0.9264535678092568,
                        0.45725188593439753,
                        0.16460369364180066,
                        -0.08898847618824345,
                        -0.25629024401412037,
                        0.4150739208323712,
                        0.08670407283417154,
                        -0.37138350099357303,
                        -0.25433990695222297,
                        0.3723025509849686,
                        0.17041643833845754,
                        0.14790759960198213,
                        -0.3770843124821159,
                        0.11494178378612178,
                        -0.05036686745052744,
                        -0.21811760440687,
                        0.12911266435959673,
                        -0.13972147401648533,
                        0.024719503945931174,
                        0.5548636669823014,
                        -0.01990057104563658,
                        -0.1917763724310334,
                        -0.38248367829508306,
                        -0.28537008648237533,
                        -0.18337004793603406,
                        0.0151242449802011,
                        -0.2783634186695062,
                        -0.19353009157477796,
                        -0.2173702276111068,
                        -0.12437688653234268,
                        -0.23393180536585262,
                        -0.1350871494385359,
                        -0.1557824597927181,
                        -0.20295461378480845,
                        -0.10107371646008044,
                        -0.03756749412343192,
                        0.030680441619195933,
                        -0.050526021493960814,
                        -0.00854066005165716,
                        -0.002013617959444242
                    ],
                    "ActivationFunctionClass": "DotML.Network.HyperbolicTangent, DotML, Version=1.0.0.0, Culture=neutral, PublicKeyToken=null"
                },
                {
                    "Bias": 0.006245421178503488,
                    "Weights": [
                        -0.15231106496386382,
                        -0.10874569605514196,
                        -0.06833877925408947,
                        0.19228007215899118,
                        0.25766812983077186,
                        -0.23772307755084504,
                        0.12446691446050083,
                        -0.524676315225287,
                        -0.10541548004530317,
                        -0.019970173012436084,
                        0.2893179076975208,
                        -0.4454601480496652,
                        -0.1297350464445739,
                        -0.008122741596787665,
                        0.706394445762661,
                        -0.38973224391883626,
                        -0.09662013715835503,
                        -0.015920989705790773,
                        0.39156923058994614,
                        0.005340498119755698,
                        -0.11685961809919947,
                        0.5151313369777014,
                        -0.18762546979165462,
                        -0.1281831447854171,
                        -0.3849118482525415,
                        -0.08457844729510124,
                        -0.01369572141311765,
                        0.060805978572893035,
                        0.03986757482855022,
                        0.06866360218981386,
                        -0.5192225005428639,
                        -0.4502340268552309,
                        -0.47367968761959484,
                        -0.039445693145956987,
                        -0.3891910309368351,
                        -0.0064979846484496855,
                        0.015629786640448746,
                        0.5148388674018657,
                        -0.06044474738034146,
                        0.22575669201451457,
                        -1.0507853267059306,
                        1.3146632434527348,
                        -0.16538123920662628,
                        -0.09907991427326539,
                        0.08295756795933772,
                        0.7170702374400495,
                        0.6287183852749523,
                        0.23968961258473356,
                        -0.05067553274534692,
                        0.39707780165938594,
                        0.37313595966285956,
                        0.4517651567287521,
                        0.000904178011753212,
                        0.1935596341273904,
                        -0.05153932210241487,
                        0.11736801866376738,
                        -0.009353614785931401,
                        0.16973044801081388,
                        -0.05381262118531452,
                        -0.0013873089303286137,
                        -0.12743063847846486,
                        0.14313081412839418,
                        -0.030220709241332393,
                        -0.20649756870504454,
                        0.08602525026072873,
                        0.04578344267660675,
                        -0.09419612668556325,
                        0.15313614148686325,
                        0.010679732956411494,
                        -0.043635135477118586,
                        0.06683138583218297,
                        0.21003528475114414
                    ],
                    "ActivationFunctionClass": "DotML.Network.HyperbolicTangent, DotML, Version=1.0.0.0, Culture=neutral, PublicKeyToken=null"
                },
                {
                    "Bias": 0.034389002399452806,
                    "Weights": [
                        0.16003446841324356,
                        0.26620575465945473,
                        0.023675149287260226,
                        -0.35912271640968063,
                        -0.5138596536527015,
                        -0.11168019425273379,
                        -0.01799051143277763,
                        0.2518358930458837,
                        0.040634905515183534,
                        0.4096050879381765,
                        0.1789711344726925,
                        0.6729288254401357,
                        -0.2756530135702867,
                        -0.06404203733667044,
                        0.061288921209175826,
                        0.04485540442438274,
                        0.2544038834559904,
                        -0.15931912694214065,
                        0.035912009776562934,
                        -0.23589447580568848,
                        -0.18147057156088106,
                        0.18737013429163904,
                        0.5467102624313204,
                        -0.7068809498125378,
                        -0.24293279592833758,
                        0.17399729692674085,
                        0.12633791804913566,
                        -0.020665994143223346,
                        -0.08197676571292073,
                        0.17991778644518666,
                        -0.09540076274316642,
                        0.35338666836590993,
                        0.4116012641408058,
                        -0.24540115759495587,
                        0.085230448635054,
                        0.06088590042055923,
                        0.15699437640229716,
                        0.1375638368098901,
                        -0.21952799990817876,
                        0.221095924103711,
                        0.03855425709780551,
                        0.5720574919613964,
                        -0.07164144120869093,
                        0.1042736709152976,
                        -0.1458046247956987,
                        0.11632444894831227,
                        0.21408255280421992,
                        0.08673922824002797,
                        -0.010838921513131938,
                        0.0438674188997383,
                        0.8713517722357939,
                        0.8469988159133709,
                        -0.1572479387892883,
                        -0.04438182156532966,
                        0.024390873323081517,
                        -0.14181223515540373,
                        0.006180854337080427,
                        -0.10035718898639046,
                        -0.023790017466462966,
                        0.06772177290407858,
                        0.1758000953512854,
                        -0.02803607323851105,
                        -0.1837924493594529,
                        -0.05648810208376166,
                        0.10046042699525737,
                        -0.03817923505716633,
                        -0.019653382897780933,
                        0.18090534849486398,
                        0.19270817536517001,
                        -0.26962436623732733,
                        -0.20974028772317174,
                        0.016293200967904504
                    ],
                    "ActivationFunctionClass": "DotML.Network.HyperbolicTangent, DotML, Version=1.0.0.0, Culture=neutral, PublicKeyToken=null"
                },
                {
                    "Bias": 0.03568547570401082,
                    "Weights": [
                        -0.036810773737144,
                        0.3403425128353962,
                        0.10897092768041765,
                        0.13308414451471762,
                        0.29132108374815857,
                        -0.16826265676958715,
                        0.1799828445071924,
                        -0.15671365045591953,
                        -0.10665371561022295,
                        0.451253803212202,
                        0.6169935170094167,
                        0.28785528523897064,
                        -0.17140881400807897,
                        0.34902206101250877,
                        0.18678127321713714,
                        -0.06976586924776185,
                        -0.1895805790781239,
                        -0.1687137786755689,
                        0.07032332662571995,
                        0.18738492396663572,
                        0.31878894667767776,
                        0.5655471683535582,
                        -0.056975103383992066,
                        0.14934551318433736,
                        -0.9040341655303687,
                        0.005270391835225659,
                        -0.11600469017446406,
                        0.10872308611692595,
                        0.1262101091390805,
                        -0.0696407021689801,
                        0.8226513090453944,
                        -0.6728118661503566,
                        0.10850269661312618,
                        -0.70004583286621,
                        0.02367317822420025,
                        0.19017165695442986,
                        -0.04000658252080618,
                        -0.022104279928565066,
                        -0.11631077206950298,
                        -0.4787044153841158,
                        0.22327616101081108,
                        0.048383797176935896,
                        -0.08679541611737408,
                        -0.046647792755723734,
                        -0.032889388205466476,
                        0.05612948700019054,
                        -0.3372273876307569,
                        0.1255786777897452,
                        -0.30750499507253437,
                        0.013743008133110017,
                        0.526811836155842,
                        0.17724899490696275,
                        -0.09437798569386606,
                        -0.16887438894188714,
                        0.03469049013167199,
                        -0.1825010542851365,
                        0.19040892759842123,
                        -0.12554079776411828,
                        -0.08507930630936124,
                        -0.20707401858513777,
                        -0.055165746121404145,
                        0.016888521585438555,
                        -0.19946275139415673,
                        -0.04900186439068246,
                        -0.11440490187067164,
                        0.0039023809533273203,
                        0.013846429468694185,
                        0.05176707987217644,
                        -0.12691941538610926,
                        -0.0620252339397745,
                        -0.20241105839705367,
                        -0.16446324095317524
                    ],
                    "ActivationFunctionClass": "DotML.Network.HyperbolicTangent, DotML, Version=1.0.0.0, Culture=neutral, PublicKeyToken=null"
                },
                {
                    "Bias": -0.029093853991553134,
                    "Weights": [
                        -0.22033786012365913,
                        -0.1729879253731676,
                        0.030518298464791593,
                        -0.3256463913401861,
                        -0.36874043834340003,
                        -0.08279570147218382,
                        -0.3291607059386779,
                        0.117144581846986,
                        0.06692203493607199,
                        0.02910844843406494,
                        0.055111410552102655,
                        -0.14344217977430662,
                        -0.03872655924821765,
                        -0.11885023244373911,
                        -0.15058401458436999,
                        -0.5139849649617118,
                        -0.1158714465332023,
                        -0.13111563775192073,
                        0.09776671117829465,
                        -0.09532619233889883,
                        0.48121543493261804,
                        -0.6362023852691366,
                        -0.3704772511471776,
                        -0.46001515770966755,
                        0.21531033247761422,
                        0.3246099231980259,
                        0.3045665500397659,
                        -0.06583423631191641,
                        -0.06875917492562438,
                        0.43644468341249437,
                        0.17073941535174258,
                        -0.6782959869517081,
                        -0.7442745750418897,
                        0.47590504928576166,
                        0.17551607642813682,
                        -0.10370716703966384,
                        0.4475205691460629,
                        -0.20250036943214011,
                        0.4434459964453255,
                        -0.34859493554070137,
                        0.8422901357921543,
                        0.3086236079609352,
                        0.27506063364494676,
                        0.09226217125746386,
                        -0.10377363244358395,
                        -0.5781145250478364,
                        0.1714494781322921,
                        0.036191230509026825,
                        0.20622916524351825,
                        -0.09886585489591967,
                        0.4909939223708328,
                        0.13013414742984492,
                        0.45890421265861175,
                        -0.09720064798696523,
                        0.09819139384764314,
                        0.05429320996009748,
                        0.056764424947845504,
                        0.07819065734263272,
                        0.06253149360615812,
                        0.18099332996463446,
                        -0.003310218055113807,
                        0.14628339811775276,
                        -0.027980721491069026,
                        0.15449728708710103,
                        0.27534966362081165,
                        0.18181837600157102,
                        0.06759648943082583,
                        0.09427517272868291,
                        -0.0032575913277273797,
                        -0.2188206652101926,
                        -0.02664808015158801,
                        -0.06264194543706714
                    ],
                    "ActivationFunctionClass": "DotML.Network.HyperbolicTangent, DotML, Version=1.0.0.0, Culture=neutral, PublicKeyToken=null"
                },
                {
                    "Bias": 0.013054765536149633,
                    "Weights": [
                        0.22353376204351938,
                        0.05354771860993422,
                        -0.23359634506580118,
                        -0.3249562595233775,
                        -0.014907523346855975,
                        0.32944135444103734,
                        0.7891155086401118,
                        -0.2525615970061977,
                        -0.27014599811023043,
                        0.17783685672583138,
                        0.033081983186950464,
                        0.6456274432133804,
                        -0.033479982800498714,
                        -0.04877936424668304,
                        -0.5481523306822335,
                        0.17351539419765927,
                        0.12698747509435052,
                        -0.2162450905998265,
                        -0.0779363830861459,
                        0.04466489814875041,
                        -0.3782953291026116,
                        -0.09368047738482013,
                        -0.024764476870339416,
                        0.3520362211513321,
                        0.333619299282025,
                        0.22895395465828497,
                        -0.1071137483198373,
                        -0.07238470617134601,
                        0.024899215873074077,
                        0.08075656694591393,
                        -0.6975846747164862,
                        0.8325738904788718,
                        0.7267895323690112,
                        -0.3386063504837384,
                        0.13853288409442246,
                        -0.19392083068539046,
                        0.041965234393657055,
                        -0.3007229671354262,
                        -0.020699026285434036,
                        0.634579556509822,
                        -0.3346707984081451,
                        -0.1974992967077952,
                        -0.1592337311286532,
                        -0.011954514306140565,
                        -0.08879917442216889,
                        -0.3966221989880769,
                        -0.3729223612678429,
                        -0.20135899764256002,
                        -0.19370406853823302,
                        -0.09758957614694136,
                        -0.1491356407647655,
                        -1.46484414223101,
                        0.15823031090207412,
                        0.0748359289542449,
                        0.17870274324119712,
                        -0.04394298005887222,
                        -0.006732498303111094,
                        0.07975913387987538,
                        -0.12100103327056372,
                        -0.047619232522454244,
                        0.04266851219773016,
                        -0.15257808259433248,
                        0.11739695124429275,
                        -0.0014844296997391948,
                        -0.16670814754294708,
                        -0.05319561495429381,
                        0.020617257898036586,
                        0.21402775178806235,
                        -0.02436414515056713,
                        -0.1513317422321902,
                        -0.03740553717598537,
                        -0.1624134912929616
                    ],
                    "ActivationFunctionClass": "DotML.Network.HyperbolicTangent, DotML, Version=1.0.0.0, Culture=neutral, PublicKeyToken=null"
                },
                {
                    "Bias": 0.014316052557848551,
                    "Weights": [
                        -0.5005321773495581,
                        0.18358111127371224,
                        0.08859886471881467,
                        -0.022813194126710363,
                        -0.3473026324586992,
                        -0.09417434956889051,
                        0.2569657835774867,
                        0.3785881795376842,
                        -0.235878516305026,
                        0.11541846082331234,
                        0.1400894116681689,
                        -0.8178676587482794,
                        -0.22336370046498855,
                        -0.1567831208226242,
                        0.6330579336351634,
                        -0.0889889562404696,
                        0.11598321364778075,
                        0.010716056630208349,
                        0.33946150602387515,
                        -0.0830340189717497,
                        0.3148418975812226,
                        0.28754117717275196,
                        -0.1385413493370483,
                        0.5345024035059323,
                        -0.4128712796036349,
                        -0.033118652525899184,
                        -0.04000324156363834,
                        0.21449358486450099,
                        -0.06085705798871306,
                        0.9288825231266533,
                        0.14951650362503838,
                        0.4043125066984862,
                        -0.18895238133452935,
                        0.321696476378723,
                        -0.11113581903333991,
                        0.07739387942189574,
                        -0.30863325000428043,
                        -0.5735511060391709,
                        0.10937955140972208,
                        0.2047259413806371,
                        0.07067996749856606,
                        -0.08322584514541839,
                        0.09523515012746855,
                        -0.04866321536288723,
                        -0.26549503480113534,
                        -0.03852323278577452,
                        0.12006313309956079,
                        0.1413435824032167,
                        0.265917876277144,
                        0.05341260468934686,
                        -0.04738886402498953,
                        -0.14473477420073236,
                        0.06905714441268235,
                        -0.019761500995933486,
                        -0.13521480390489576,
                        -0.027594449051235346,
                        -0.2060216099042525,
                        -0.00830889037999182,
                        0.08497758326989921,
                        -0.20641970812644161,
                        0.029208516870619972,
                        -0.11978684576404908,
                        -0.004307883031689191,
                        -0.007181599549051793,
                        -0.2066176912257146,
                        -0.24748410725006886,
                        0.1587440418671896,
                        -0.24574020040779226,
                        -0.017647057160730135,
                        0.16857924204546704,
                        0.0634339657442545,
                        -0.22605013493421539
                    ],
                    "ActivationFunctionClass": "DotML.Network.HyperbolicTangent, DotML, Version=1.0.0.0, Culture=neutral, PublicKeyToken=null"
                }
            ]
        },
        {
            "Neurons": [
                {
                    "Bias": -0.346971987594182,
                    "Weights": [
                        0.47134484507856533,
                        0.22233169115895016,
                        -0.5828702819023466,
                        -0.02755797288204683,
                        0.1875522471092494,
                        -0.08796650373392789,
                        -0.3363207083454285,
                        -0.343620606252717,
                        0.22647011409665427,
                        -0.24727162096176822,
                        0.3341708272016659,
                        -0.03969530569598095,
                        0.11500748510151348,
                        -0.5191870173683143,
                        -0.2967307340708409,
                        1.2193967423192955,
                        -0.2819896421241848,
                        -0.11845709905109675,
                        0.07187607315656801,
                        -0.2692927364750325,
                        -0.017805993420427452,
                        0.5646443532118203,
                        -0.4116656953525314,
                        0.11733449459247573,
                        0.5318835057817352,
                        -0.7341546834626023,
                        -0.12913649025674961
                    ],
                    "ActivationFunctionClass": "DotML.Network.HyperbolicTangent, DotML, Version=1.0.0.0, Culture=neutral, PublicKeyToken=null"
                },
                {
                    "Bias": -0.38625010220656497,
                    "Weights": [
                        0.21671100399501375,
                        0.2671350407937519,
                        -0.6068618801542942,
                        -0.6734969646928227,
                        0.18135452691267276,
                        0.5597064423710276,
                        -0.24572178047645318,
                        -0.24585024576356998,
                        0.4218864801483085,
                        -0.3299327436847502,
                        0.325755244668194,
                        -0.7012137846258137,
                        1.2319436932825683,
                        -0.6568030545567711,
                        -0.31251262541552116,
                        0.18323944293860672,
                        -0.32699695316339805,
                        -0.2558698677332946,
                        0.6018325200927158,
                        0.03728017703028269,
                        -0.005645049291206063,
                        -0.7806017343579292,
                        0.13851620434757594,
                        -0.2282770025008681,
                        -0.16881818617909897,
                        -0.08977375773541425,
                        0.44941408392373083
                    ],
                    "ActivationFunctionClass": "DotML.Network.HyperbolicTangent, DotML, Version=1.0.0.0, Culture=neutral, PublicKeyToken=null"
                },
                {
                    "Bias": -0.3803478309106104,
                    "Weights": [
                        -0.9420734450912734,
                        0.6605711720025325,
                        0.7128215978111123,
                        -0.5623554309368196,
                        0.28543284229098426,
                        -0.53615474125412,
                        -0.4462788066452353,
                        -0.45191300407709845,
                        0.2660670106275092,
                        -0.0891096235769574,
                        0.6206916360310777,
                        0.2611702383837981,
                        -0.32718658836065106,
                        -0.3329252615615083,
                        -0.5621386798356361,
                        -0.22870384362812535,
                        -0.2541381430317655,
                        -0.20923363374739556,
                        -0.7369348104870237,
