{
    "Layers": [
        {
            "Neurons": [
                {
                    "Bias": 0.008176264530822947,
                    "Weights": [
                        0.0037044933451736354,
                        0.09945437668564158,
                        -0.08961665300096758,
                        0.03351625066556232,
                        -0.01894589644980902,
                        0.28824791019824936,
                        0.016823982885199585,
                        -0.15604048442008672,
                        0.13611764974725682,
                        -0.01711548044183137,
                        -0.07746010688227116,
                        -0.07552107898469146,
                        0.08764226726922059,
                        -0.08403354201092988,
                        -0.04788175295483343,
                        -0.01792303887667403,
                        -0.05402460803177273,
                        -0.13944611784863709,
                        -0.08930970681609414,
                        0.026371010156403068,
                        0.29700838118574424,
                        0.12014297375088887,
                        -0.01073772889421311,
                        0.08775011117498968,
                        0.09584534312319015,
                        -0.17851596571288597,
                        0.28991638321018437,
                        0.08971985188497729,
                        0.07481585501093248,
                        0.24985960229047074,
                        -0.010205950690021082,
                        -0.11432115906510706,
                        -0.023147820310361455,
                        -0.13604250610016802,
                        0.08596637588301644,
                        -0.043857577804955764,
                        0.09194638754217885,
                        0.3384369910723464,
                        -0.055360201860368,
                        -0.07818215413900428,
                        0.07718918871730619,
                        0.1370317594376383,
                        0.29592525667594766,
                        0.2001467967907264,
                        0.26165535224767256,
                        0.07677460660455224,
                        0.05656343066398215,
                        0.10431436452453309,
                        -0.07051634048026696,
                        0.06522548190444279,
                        -0.21481344842450262,
                        -0.18525642256312114,
                        0.14713420871083194,
                        -0.18964224679342936,
                        -0.31659369635166773,
                        -0.016953313974098022,
                        0.18862145343563183,
                        0.10745167571637002,
                        0.5057105683058037,
                        0.25666573766287065,
                        0.2525420136610134,
                        0.0997410201451844,
                        -0.0570026305132403,
                        0.10705759563132132,
                        -0.0002769950715057344,
                        0.0049193147584049675,
                        -0.2004759599519854,
                        0.05980335478038139,
                        0.2962699312907797,
                        0.4636116672139113,
                        0.2733890852210702,
                        0.30154860837931347,
                        -0.260344145916962,
                        0.4519207211200507,
                        0.14053363965578275,
                        0.05067396907929941,
                        -0.035949048790193096,
                        0.016051501573579832,
                        -0.03241709809556649,
                        0.1295005831414772,
                        -0.07289119966104804,
                        0.06669575316534214,
                        0.059338443508882614,
                        0.33425875740769456,
                        0.2750169608797792,
                        0.06614614877560013,
                        -0.37150383853065816,
                        -0.5938580443287926,
                        -0.3497482405780562,
                        0.3987021154199521,
                        0.3158728748957217,
                        0.09445920668683214,
                        -0.018100920570613865,
                        -0.38411666744444656,
                        -0.30531468507573484,
                        -0.0806349183655036,
                        0.028485408039240937,
                        0.03831602936420902,
                        -0.11386251585555722,
                        -0.16462485366781868,
                        -0.010682965386245606,
                        0.12108374361555523,
                        0.3083114043043326,
                        -0.23916099929883944,
                        0.2985067399481718,
                        0.2164692979535624,
                        0.31887770331930604,
                        -0.030419313919301503,
                        -0.2358980950155952,
                        -0.3770866757232987,
                        -0.07421958991236112,
                        0.014347837436067387,
                        -0.05266634647667688,
                        -0.08982524913253168,
                        -0.03644811314190996,
                        -0.07267370143873782,
                        -0.0898829859645528,
                        0.39453415973513695,
                        0.7715622524142395,
                        0.016494384364898976,
                        0.2849922348972044,
                        0.021154755696138065,
                        0.20265474539499473,
                        -0.029798421619192234,
                        -0.12988565159940307,
                        -0.12877672963444936,
                        -0.027403982607329725,
                        0.11049536831521856,
                        -0.04556653912087842,
                        -0.13396135537006262,
                        -0.21511007204031196,
                        -0.14948368538205728,
                        -0.03423976174590129,
                        0.13744848341530022,
                        0.38927593656035075,
                        0.2967651504319689,
                        -0.00023136067256229886,
                        -0.11322725460768504,
                        0.03897590546002413,
                        -0.40794927375648815,
                        0.12019114240915578,
                        0.03408288147157586,
                        -0.02385150380095932,
                        -0.044071036430838886,
                        -0.019366008051758993,
                        -0.09403139885769622,
                        -0.0805178645393175,
                        -0.16405197601592425,
                        -0.11475790550512552,
                        -0.1194202138141127,
                        0.5007026554546119,
                        0.8039099268283354,
                        -0.006071966754086806,
                        -0.3412442911710162,
                        -0.18775207982768832,
                        -0.19414533378685137,
                        0.0785171209028364,
                        0.27644294516681206,
                        0.19428345810865216,
                        0.037023247859512984,
                        0.04105334772683622,
                        -0.07544106315816092,
                        0.0614132624925395,
                        -0.02974233845446081,
                        -0.10254454005488182,
                        0.15735005629562965,
                        0.07970239381450472,
                        0.12054814714591541,
                        -0.20488758546826677,
                        -0.06928749121329708,
                        -0.31556772797800414,
                        -0.06918035427748252,
                        -0.0925047212912951,
                        0.24747285913125988,
                        0.17172804507390457,
                        -0.09576676853386332,
                        -0.07968161149604405,
                        -0.02299002239816204,
                        0.057323876720505186,
                        0.0963482761104099,
                        0.1775209226698454,
                        -0.15149872625082983,
                        -0.37300300457278956,
                        -0.07628712006787762,
                        -0.394471955306498,
                        -0.5423248246345808,
                        -0.5837526430777793,
                        0.09887517457035586,
                        0.07766782565008269,
                        -0.06082833462378656,
                        -0.11208282884309953,
                        -0.1288975706483982,
                        -0.022555018676409955,
                        -0.009582781953444919,
                        0.03433582006846802,
                        -0.1397441951108882,
                        0.09170386623913122,
                        -0.0900938558679936,
                        -0.30877487992196395,
                        -0.09149184228492498,
                        -0.03370337142337273,
                        -0.01320508302320379,
                        -0.1468444595003621,
                        -0.40715356450900375,
                        -0.0711863313860479,
                        -0.12413682559985566,
                        0.14228850583389094,
                        -0.03504889015356541,
                        -0.044275882587980195,
                        -0.03290158210107664,
                        0.029283264066064508,
                        -0.36895848820548527,
                        -0.1265343485591278,
                        -0.26468751350339076,
                        -0.18995799883374181,
                        -0.17495312717396372,
                        -0.21756553710718365,
                        -0.4704139465718223,
                        -0.25117454686397883,
                        0.1963945729494732,
                        0.2787358914795382,
                        0.18647214561965614,
                        0.19570177471850492,
                        0.12499962634567124,
                        -0.16606962249002052,
                        0.05017673587911233,
                        0.06576282830694676,
                        -0.08740829613747542,
                        -0.03729667812962441,
                        -0.23564571988278837,
                        -0.3486270316329906,
                        -0.10499506404901793,
                        -0.07376349743163133,
                        -0.2836063733865917,
                        -0.17491537648573752,
                        -0.023916003320434462,
                        0.07103559069853484,
                        0.2770977999213447,
                        0.300346494783771,
                        -0.0582347078480488,
                        0.01153075876617865,
                        0.097759492553921,
                        0.08954492799051136,
                        0.12654334295163197,
                        -0.007720077415072708,
                        -0.03231928496235294,
                        0.060920361994919944,
                        0.10420889269416037,
                        0.03975452557740581,
                        0.08841440715693763,
                        0.020588236117371178,
                        -0.09112017515112122,
                        0.11333715671388186,
                        -0.019925472640983592,
                        0.03506318264793558,
                        0.003145829500679269
                    ],
                    "ActivationFunctionClass": "DotML.Network.HyperbolicTangent, DotML, Version=1.0.0.0, Culture=neutral, PublicKeyToken=null"
                },
                {
                    "Bias": 0.036825797674679785,
                    "Weights": [
                        0.08363298885457059,
                        -0.0022250121177314294,
                        -0.0954866455428499,
                        0.024220940385664403,
                        -0.13487787733606035,
                        0.027719959192111746,
                        -0.034677671216268996,
                        -0.057481168324761675,
                        0.12285695520766877,
                        -0.00028539655223052643,
                        0.05162974611753286,
                        0.1564801830704127,
                        -0.04129630193766191,
                        -0.06289438273961835,
                        -0.07527450634286491,
                        -0.04821189504032206,
                        0.03294742833863689,
                        0.017945525435007412,
                        -0.06377633814812973,
                        -0.057392154728439365,
                        -0.035442702127555493,
                        -0.04301367086305863,
                        -0.10662251028631595,
                        0.13812286921826247,
                        0.023644539812166118,
                        0.04291517769114251,
                        0.0035672026402389046,
                        -0.10353402237547878,
                        -0.18189914485195627,
                        -0.06522782009414485,
                        0.05226570677016153,
                        -0.11991556230950938,
                        -0.08049427770202372,
                        -0.08180663148377959,
                        0.04456888148190069,
                        0.03470116319105059,
                        -0.07821786770643298,
                        0.10110522354049986,
                        0.012916553330865608,
                        0.06438466755165563,
                        0.02318016602728075,
                        -0.12347508666200709,
                        -0.04836705944977316,
                        -0.0418967537447102,
                        0.12481166428701472,
                        -0.0295898085710036,
                        -0.1062572876317358,
                        -0.08582104463955625,
                        -0.14997531765509423,
                        -0.08901841017306131,
                        0.02374861698638192,
                        0.055322464824399294,
                        0.34028195227057584,
                        0.23342528830122286,
                        -0.03654693718089184,
                        -0.1722789922018453,
                        -0.15995207160819963,
                        -0.341179970699985,
                        -0.18720821395309944,
                        -0.22907843905620506,
                        -0.09801456890169645,
                        -0.10567567447019593,
                        -0.040608633758345045,
                        -0.04593856240743693,
                        -0.03691493110355275,
                        0.0392053404110405,
                        0.032537467086976864,
                        -0.1671130898097712,
                        0.46061829009602356,
                        -0.1595068421507314,
                        -0.026290458905244136,
                        -0.004303301017690627,
                        -0.13547804976957808,
                        -0.30799643651075764,
                        -0.3050228076782255,
                        -0.41673506587101167,
                        -0.3618797212701348,
                        -0.16692995356320736,
                        -0.09961337931839255,
                        -0.11152475585719074,
                        0.018353297894885004,
                        -0.04521645684413856,
                        0.06909976699302983,
                        -0.07575949805245825,
                        -0.2380462046257711,
                        -0.11836603191336849,
                        -0.1363786794915741,
                        -0.039880475931576245,
                        -0.2976674844899666,
                        -0.08486006661591929,
                        -0.16377769571636355,
                        0.012671075750359863,
                        -0.2485100072689811,
                        -0.008660503390694529,
                        0.00461550436553926,
                        -0.17279360426029938,
                        0.12672961316865622,
                        -0.03328808431635678,
                        -0.053455094427264344,
                        0.13650404558727522,
                        0.11324729895663155,
                        0.10912220977145724,
                        -0.11532800907402246,
                        0.3017689920415623,
                        -0.12046903151617323,
                        0.001965785836038395,
                        -0.32917298338128953,
                        0.24977983889014135,
                        -0.040565202608183325,
                        0.11262492770664917,
                        0.1143725174004583,
                        0.1077309816464199,
                        -0.12761202202141322,
                        -0.00679799818213742,
                        0.05702792766723537,
                        0.039635998656943484,
                        0.18939658902132953,
                        -0.01653400061141214,
                        0.0290521207474451,
                        0.3701864928707709,
                        0.14575435531224884,
                        0.003625042721790512,
                        0.12019928249026116,
                        -0.06124182114812454,
                        -0.005028075514743581,
                        0.11065186905030291,
                        0.05453092546011038,
                        -0.09717300074849106,
                        -0.022110102276138476,
                        -0.09106426993736996,
                        -0.041967272483357944,
                        0.07529438037816695,
                        0.1057569371889519,
                        0.22009484537228943,
                        0.014709125967700734,
                        0.0024299233714749928,
                        0.15687179433249338,
                        -0.24096906494555925,
                        0.2685158415524433,
                        -0.20149685918338137,
                        -0.07080241340558871,
                        -0.02413258503915183,
                        0.124213845618077,
                        -0.03575718673271707,
                        0.021045287969421667,
                        -0.07620273362864405,
                        0.05216127656585584,
                        -0.08324101321515569,
                        0.057268806786298136,
                        0.11276402563286995,
                        0.4446839608417417,
                        0.7515008940685723,
                        0.19305257994163283,
                        0.2005839444494725,
                        0.0006947420440566631,
                        -0.2756030236976372,
                        0.020792166826787167,
                        -0.1368986422281439,
                        -0.12621995834324018,
                        0.092549637510142,
                        -0.09407376048565605,
                        0.0640569176598663,
                        0.13269413251377196,
                        0.05817884113128359,
                        0.20617658082904228,
                        0.04146171925092192,
                        0.41847881000928594,
                        0.6567878956863278,
                        0.4375933708433467,
                        0.16730664442138826,
                        -0.057791888337685615,
                        -0.42989460142609204,
                        -0.03670086084680714,
                        -0.35182053900353333,
                        -0.1994898372280276,
                        -0.03447587174255872,
                        0.07513073553781527,
                        -0.07412480386376498,
                        0.032609983127393924,
                        0.30252901837709006,
                        0.1543964073395108,
                        0.19317935423754873,
                        -0.3379316504449892,
                        -0.14877426661755538,
                        0.04788212891198908,
                        -0.17183500588809564,
                        0.4510197856938418,
                        -0.37335335690798716,
                        -0.364830145115951,
                        -0.20943883065504984,
                        -0.10852130550120109,
                        -0.15016467504545244,
                        -0.027525104546791457,
                        -0.09092045136370319,
                        0.01400115190058505,
                        0.27241041351357453,
                        0.0008222306010203913,
                        -0.03922505980244605,
                        -0.08017346807997058,
                        -0.0608864779664165,
                        0.1780036554694954,
                        -0.05814070499378685,
                        0.2940481718006553,
                        0.1259777843822117,
                        -0.17844839225990558,
                        -0.2128717779209254,
                        -0.07217847277709223,
                        -0.11476301235727121,
                        0.06441561534571914,
                        -0.0005974428486814874,
                        0.15691495560714463,
                        0.16100965566353567,
                        0.213375226860519,
                        -0.2581301209082868,
                        -0.08636865019984002,
                        -0.346900432579508,
                        -0.22838945897017496,
                        0.16438711324591604,
                        0.08861232104872918,
                        0.30850680272709213,
                        0.32044720370120006,
                        0.38768250187197406,
                        0.088566344066199,
                        0.02691145997221762,
                        -0.12000454334733779,
                        0.17010038336736472,
                        0.19000481357350876,
                        -0.03911595785842985,
                        0.03559783425432214,
                        -0.01833629371652951,
                        0.1042857181211666,
                        -0.0167588208961415,
                        -0.11065797818133248,
                        -0.12182976609164958,
                        0.05859233214388804,
                        0.22163445375396057,
                        0.033960217755194595,
                        0.04881607464771304,
                        0.28259030350369313,
                        -0.05733274506629705,
                        -0.10116587037112555,
                        0.12917377779382158,
                        -0.10482253383014213,
                        -0.09813659285060057,
                        -0.017655938095688797,
                        0.031839717050183576,
                        -0.07446629205416906,
                        0.06203185376330655,
                        -0.051387699198025695,
                        0.09463037759785724,
                        0.02120039096683096,
                        0.00420331069750407,
                        0.028503150024631108,
                        0.1536086680305734,
                        0.10011706262478597,
                        0.04615822088180701
                    ],
                    "ActivationFunctionClass": "DotML.Network.HyperbolicTangent, DotML, Version=1.0.0.0, Culture=neutral, PublicKeyToken=null"
                },
                {
                    "Bias": -0.010571061166251658,
                    "Weights": [
                        -0.03393023173266951,
                        0.07836269495712862,
                        -0.16003172151094694,
                        -0.03332411395767124,
                        0.06111021928365256,
                        -0.1429049922658429,
                        -0.0023872688626447045,
                        0.06026459724286121,
                        -0.02907865574942831,
                        0.016448036547764548,
                        0.014284313555129187,
                        -0.017197954731439848,
                        -0.005020191081325337,
                        0.17531693415444313,
                        -0.3002570629388771,
                        0.08692430471042152,
                        0.06789859750496052,
                        0.1592392805274212,
                        0.1777265612665105,
                        0.11271245322310605,
                        0.1430549640022215,
                        -0.18501101812869203,
                        -0.37606984111306707,
                        -0.14945174549450393,
                        -0.3059320408904531,
                        -0.2675311889187981,
                        -0.29249256949886593,
                        -0.0816616534140741,
                        -0.04618578032036444,
                        -0.0034984767903049278,
                        0.07565396062889855,
                        0.04664061603876215,
                        0.052580625466414635,
                        0.4549302700994731,
                        0.298737466976391,
                        0.3905510454258974,
                        0.2244015485111963,
                        -0.27906035003243373,
                        -0.568208920991565,
                        -0.43853692621020945,
                        -0.14178483338508915,
                        -0.09439520773829158,
                        -0.2565718272304167,
                        -0.12073175638800906,
                        -0.061089765266955205,
                        0.21872579287547236,
                        0.0647082817486389,
                        -0.03631008277831535,
                        0.043821931209860956,
                        -0.045269440658297556,
                        -0.014754309794315712,
                        0.20053233583822372,
                        0.01591665155262089,
                        -0.10191803551227932,
                        -0.6565236751512626,
                        -0.38686921541232655,
                        -0.4857351007031925,
                        -0.36236947804982966,
                        -0.02702250649020277,
                        -0.01420096615823676,
                        -0.02815529206059563,
                        0.14405407220858427,
                        -0.1449786011341402,
                        -0.08183793282207003,
                        0.03989129089814918,
                        0.014076825208536353,
                        0.13674791212993723,
                        0.21763102359761008,
                        0.27897412319457493,
                        0.30395398268022167,
                        -0.008758812532143362,
                        -0.22575093157080162,
                        -0.48177606211500834,
                        -0.4571182563555037,
                        0.10682966240470312,
                        0.08521462626484927,
                        0.18635474565122287,
                        0.23530793330116886,
                        0.009539278963983324,
                        0.014737749110521833,
                        -0.057206614898614984,
                        -0.22076608569178321,
                        0.0820811664079919,
                        -0.17436791514889965,
                        -0.06016416506138994,
                        -0.09500931048506633,
                        -0.2559599662668812,
                        -0.0977945245994045,
                        -0.23344861051990856,
                        -0.19526990958181523,
                        0.12048599799411064,
                        -0.401784679489211,
                        -0.05845994419205253,
                        -0.22959570476668642,
                        -0.02009779622950564,
                        -0.015295991123595197,
                        0.17786886364305277,
                        -0.21255175909590066,
                        -0.023649080332717426,
                        0.09236466502473446,
                        -0.07558711014067736,
                        0.2042425029602487,
                        -0.09830194674667136,
                        0.4708887706396887,
                        -0.1486228752517076,
                        -0.12281573900325655,
                        0.2892804648126204,
                        -0.16986581492370303,
                        0.2010346827276327,
                        -0.15134341836185478,
                        -0.11692722444654571,
                        -0.03226137603807668,
                        0.12669107575635236,
                        -0.2336851746476098,
                        0.09456511238560408,
                        -0.16979214254983405,
                        -0.12370950793429109,
                        -0.15969582470634014,
                        -0.16142360699135477,
                        -0.17885965960147435,
                        0.0954493559990806,
                        -0.42346939818212276,
                        -0.16170662082541976,
                        0.07025648352671304,
                        -0.16613963223759448,
                        -0.16106687969797526,
                        -0.15926870193446474,
                        0.018786308384145124,
                        -0.024553452501433908,
                        -0.12667220943249477,
                        0.17711851410975984,
                        -0.1503870599014482,
                        0.1459620149404981,
                        -0.15597535327358467,
                        -0.06641177904882542,
                        -0.2628278803345354,
                        -0.20673807206597003,
                        -0.2257173906616071,
                        -0.22561256304899674,
                        0.004163857333618722,
                        -0.337300808950228,
                        -0.2795289429910527,
                        -0.0664319518968675,
                        -0.14542231702128094,
                        -0.033271091128438283,
                        -0.12736124439666782,
                        0.11506087258267725,
                        -0.2952784064342726,
                        0.19648526412256673,
                        0.10201628443573663,
                        -0.08597951497436264,
                        -0.320414277143335,
                        -0.018238219992215275,
                        -0.25976313302493315,
                        -0.34827795018974206,
                        -0.3571753887072604,
                        -0.3182972758876598,
                        -0.04794388226220559,
                        -0.19996308645918195,
                        0.09415272353653674,
                        -0.06078462518040866,
                        -0.05514642886521086,
                        -0.05296039666445692,
                        -0.345363375715889,
                        0.22763404943581775,
                        -0.09942140526350006,
                        0.14324455848504508,
                        -0.3267012470428662,
                        0.0008477550058964909,
                        -0.16504271796691422,
                        -0.13973726415008242,
                        -0.23377626072509022,
                        -0.05029513471593941,
                        -0.099636057279404,
                        -0.048174955091846494,
                        0.03294815197144515,
                        0.060376581304204265,
                        -0.1600085181985095,
                        -0.11491444617438697,
                        -0.020727906437901407,
                        0.4546158791290086,
                        0.49991494482176063,
                        0.36818333302759254,
                        0.17881461335613108,
                        0.12458948114493304,
                        0.19692958437933797,
                        0.022421553631744775,
                        0.08326136625269863,
                        0.2359475525543471,
                        0.18029153882186205,
                        0.031886709255201484,
                        0.014092017806435347,
                        0.19654152237541478,
                        -0.029146714702941223,
                        0.05595545572418307,
                        0.1722448982386508,
                        0.17327144918429047,
                        0.08129356532785297,
                        0.564515834632049,
                        0.2178092451933258,
                        0.14970986091848884,
                        0.06333698429390629,
                        0.062479095302199666,
                        0.2935042452455279,
                        0.08900113586027533,
                        0.015298216297437878,
                        -0.07844711068634573,
                        0.015101623727526034,
                        0.1400981430984448,
                        0.25914266319288165,
                        0.48895677558707595,
                        0.42973761570015195,
                        0.21680050291758338,
                        0.06620324506550519,
                        0.1994099455853875,
                        -0.17035273457611,
                        0.02259143063894619,
                        0.28085023447379115,
                        0.1237600751014192,
                        0.0296424935714746,
                        0.052250921194973425,
                        0.3107976798802352,
                        0.15323482069568145,
                        0.06088804535289364,
                        0.02889424663865018,
                        0.11106041558507528,
                        0.33864000383567655,
                        0.1290134610882312,
                        0.16580537527084357,
                        0.16049259144379247,
                        0.2705645624935055,
                        -0.0036319434460048558,
                        0.09069464994917664,
                        0.1274564855126473,
                        -0.04428000776984198,
                        0.0631026411405293,
                        0.06704454895103476,
                        0.06323153907822145,
                        0.08639231720634309,
                        0.06662962413305948,
                        0.07283922654616444,
                        0.036563322049430316,
                        0.07730299769712078,
                        0.12924341575884468,
                        -0.08874380578183742,
                        -0.01507276662478326,
                        0.14890852579234623,
                        0.08642507758104383,
                        0.02780102285151175,
                        0.0996081645288666,
                        0.04987298560271638,
                        -0.2061810971973145,
                        -0.006891213240928976,
                        -0.11009335018314846,
                        -0.1666141321110192,
                        0.02883562129292875
                    ],
                    "ActivationFunctionClass": "DotML.Network.HyperbolicTangent, DotML, Version=1.0.0.0, Culture=neutral, PublicKeyToken=null"
                },
                {
                    "Bias": 0.0538089878829711,
                    "Weights": [
                        -0.08998964629070741,
                        -0.05187020975819613,
                        -0.10540561627703679,
                        -0.09364245183055173,
                        0.039571259766764996,
                        0.040392819037128276,
                        -0.05346618094788445,
                        -0.15767113197259716,
                        0.030716937873136056,
                        -0.10153775834254605,
                        -0.06473273547652868,
                        -0.025847697327081826,
                        -0.04125115650525177,
                        0.0066239019167450355,
                        -0.02322222451707111,
                        -0.030544885445090045,
                        0.024467063967274258,
                        0.13412339090858946,
                        0.015457081336055417,
                        0.009530535373157423,
                        0.3174486456394573,
                        0.026874847743193552,
                        0.03164007465407863,
                        -0.008849446677170386,
                        0.10135456353219625,
                        -0.0941269608044417,
                        0.13261899112911177,
                        0.04167624869512615,
                        0.011010222250194617,
                        0.0872832250047512,
                        -0.03588493754405948,
                        -0.13429934364249152,
                        0.09255937744250846,
                        0.28173201980275014,
                        0.007660859225792034,
                        0.08606779760194797,
                        0.22886956827529106,
                        0.12388442836274316,
                        -0.010325691169515464,
                        0.055434122622881915,
                        0.15258592676535374,
                        0.011890820301697807,
                        -0.02621715024362227,
                        -0.07123126476809524,
                        0.062043790695614505,
                        0.07701515250544344,
                        -0.1061077849751018,
                        -0.016110600883455808,
                        0.024246340818121142,
                        0.023102020934882315,
                        -0.11700423592157405,
                        0.130011797970669,
                        -0.1372899142564644,
                        0.040704837972773335,
                        0.10458127516972762,
                        0.34808749175238907,
                        0.1464025831189994,
                        0.25866645975240493,
                        -0.18557746029335492,
                        -0.2560274865528281,
                        0.17072383977307518,
                        0.183860238825572,
                        0.2929523680762992,
                        -0.21485791491315512,
                        -0.06239133058431886,
                        0.048335991805765165,
                        0.11226510393837638,
                        0.12701282226954264,
                        -0.16240820532947192,
                        0.296158812635081,
                        0.675095588862417,
                        0.22903459008303279,
                        -0.13220992023218583,
                        -0.22856064009374458,
                        -0.18089062769096365,
                        0.12392102710552905,
                        0.18006828517694,
                        0.27988153511030456,
                        0.03226395703421769,
                        0.021021703904565366,
                        -0.006590539218812774,
                        0.07215559520031241,
                        0.10411252669446139,
                        0.236568687878299,
                        -0.1270513764127626,
                        -0.22940365564598075,
                        0.29744791015547783,
                        0.45251061834710454,
                        0.1638760752184315,
                        0.08111621851425505,
                        -0.15502069970248264,
                        0.09847663694067815,
                        0.505823421348608,
                        0.2317346983702704,
                        0.0010577805958516958,
                        -0.04491911756626673,
                        0.015603214078677097,
                        0.02543941095965107,
                        -0.06411580530494429,
                        0.11201987712762637,
                        -0.1316644160945688,
                        0.003822858299665553,
                        0.3794155753875586,
                        0.3824077401563262,
                        -0.055555036371892706,
                        -0.19488253048336635,
                        -0.03735869684262824,
                        -0.14812695404159126,
                        0.13588692883584522,
                        0.2515643178069933,
                        0.1701143374772296,
                        0.010800549467466882,
                        0.046545183335894115,
                        0.03658009755345068,
                        -0.15011961160244677,
                        0.025585824142810604,
                        -0.02815294859150668,
                        -0.318728429228308,
                        -0.05382741064622603,
                        0.3729878251068589,
                        0.35875934216279753,
                        0.07140741009634463,
                        0.5177378109859064,
                        -0.10294289449260852,
                        0.21190921959860837,
                        -0.057255574240596435,
                        0.043411294311163647,
                        -0.1545024840365321,
                        -0.08736853019862197,
                        0.03965503885293603,
                        -0.2636522933307574,
                        -0.08426903477073139,
                        -0.32878316705117894,
                        -0.16332433270461927,
                        0.028204072755678593,
                        0.7312300544336015,
                        0.30423361228922746,
                        0.24119615418852022,
                        0.3971452077462323,
                        -0.03635256241974517,
                        -0.08585254711876608,
                        -0.4114491874093854,
                        -0.09159616795009971,
                        -0.0069933574988747605,
                        -0.033712724162084276,
                        -0.14700589604823402,
                        -0.14142562381877796,
                        -0.06523962845750621,
                        -0.2805600630398926,
                        0.17828774471161563,
                        0.6343709072544772,
                        0.2213159109470075,
                        -0.16027653523095586,
                        0.08145171853125402,
                        0.4424047802844901,
                        -0.11583333852342935,
                        0.11984645602065054,
                        -0.000934805381504102,
                        0.056098325508768435,
                        0.0015141883704031822,
                        -0.09237216631872879,
                        -0.1011136931126483,
                        -0.20800724310614116,
                        -0.02629778214409881,
                        -0.03674684694690835,
                        -0.36128346640016673,
                        0.0912408677132207,
                        0.19923033777460752,
                        -0.07869387024482385,
                        -0.17100377482973525,
                        0.13599812541838144,
                        0.1820143218902353,
                        0.35170431732791124,
                        0.02017864205655137,
                        -0.027910357799201445,
                        -0.1255981911297214,
                        0.059997241742609564,
                        -0.13217199685770592,
                        -0.44754044831604267,
                        -0.15663011302242807,
                        0.13212103068906145,
                        0.31386447403926027,
                        -0.11264197048433074,
                        -0.22051304980318667,
                        -0.2068809589749235,
                        0.05039229650495097,
                        -0.14639081786427297,
                        -0.18358117649425745,
                        -0.18491138909457833,
                        -0.04633924268777919,
                        -0.03170827676095007,
                        0.05295493823436615,
                        -0.06701722701083641,
                        -0.04064981174176015,
                        -0.180181373072788,
                        0.29331545393043407,
                        -0.08697633229107693,
                        -0.1541994186512697,
                        -0.455775195099251,
                        0.12751830251794935,
                        -0.43103298917815785,
                        -0.27029581503457256,
                        -0.26212150744170654,
                        -0.3339864797739831,
                        0.025619121809100708,
                        0.08222086235276051,
                        0.04141499842054504,
                        -0.13599877470837995,
                        -0.13058222994622573,
                        -0.05529693448942295,
                        -0.0431832147950425,
                        0.25433749920470267,
                        -0.1649759399506349,
                        -0.39180994654197526,
                        -0.5210011038658643,
                        0.0906107914693762,
                        0.1874287018516479,
                        -0.0026457990338415237,
                        -0.477207397357895,
                        -0.2611580434430923,
                        -0.18923018854875473,
                        -0.0355119714881514,
                        -0.010865809075293458,
                        0.04816270677953166,
                        0.05032608545886241,
                        -0.15142917695441596,
                        0.0669463177631322,
                        0.022663614270299722,
                        -0.2210706633270314,
                        -0.17081811865580443,
                        -0.1391618699751209,
                        -0.031910239258359716,
                        0.05888446346198537,
                        -0.0700953532598948,
                        -0.3095879318738333,
                        -0.06911239318186796,
                        -0.043054119914224545,
                        0.015688663333856705,
                        -0.16784257862806864,
                        -0.20956173730778052,
                        0.14510585567588105,
                        -0.12635689800287925,
                        -0.11235937600780388,
                        -0.17149567278403335,
                        -0.027122137123814036,
                        -0.05190457424856304,
                        0.018218020142682156,
                        -0.06457614935943667,
                        0.0004795689000093963,
                        0.11429884313152577,
                        0.010206663254640208,
                        0.0611899696821881,
                        -0.018460794151992983,
                        -0.1468378611316218,
                        -0.21357496658271388,
                        -0.04652736276594885
                    ],
                    "ActivationFunctionClass": "DotML.Network.HyperbolicTangent, DotML, Version=1.0.0.0, Culture=neutral, PublicKeyToken=null"
                },
                {
                    "Bias": 0.05239633910382824,
                    "Weights": [
                        -0.04860145514914406,
                        0.023872696184704792,
                        -0.11889596237622209,
                        -0.057404749324002025,
                        -0.10124727023873918,
                        0.07540733695924734,
                        0.0647198847388143,
                        -0.1591580403728268,
                        -0.10388088793643244,
                        -0.08387339672052282,
                        -0.029299582293575568,
                        0.006292188829214108,
                        0.02556628706476411,
                        0.01989019090646462,
                        0.08367691972429707,
                        -0.24304731881264538,
                        -0.013479709582163026,
                        0.02240255201722652,
                        -0.23818490752939925,
                        -0.1079328244552872,
                        -0.0625104943666542,
                        -0.008744655042088411,
                        -0.08873059846620844,
                        0.08943107366982013,
                        -0.15738121602299368,
                        -0.10277149911232192,
                        0.12931490664380263,
                        0.19060288285250854,
                        0.03490242961879239,
                        -0.011284616492704402,
                        0.15777533471104063,
                        -0.09077044230710815,
                        0.04847793326113185,
                        -0.037682752811050886,
                        -0.02296424513643159,
                        -0.09255318068850273,
                        0.027406613162293703,
                        -0.0655782346277866,
                        0.10591686144515718,
                        -0.04112671474481802,
                        0.02099870138477223,
                        0.0902279018211637,
                        0.18405013025696693,
                        -0.012976803173625324,
                        0.05279314475075236,
                        0.09276916633194875,
                        0.07873244172218237,
                        -0.10694210822367803,
                        0.027394432296596986,
                        0.13914802576076135,
                        -0.12661187706949248,
                        0.037918963428607844,
                        -0.33870286795740534,
                        -0.20212093338314208,
                        -0.013633672007901058,
                        -0.07258337592503965,
                        -0.022520854720138733,
                        0.05073509315956517,
                        -0.021410414165574702,
                        -0.06698602313718623,
                        -0.16574151886902952,
                        0.05469746371192314,
                        0.06230591116030114,
                        -0.05678843410385559,
                        0.03359448902414395,
                        0.20500582455105437,
                        -0.007579844050681039,
                        0.21401629217237692,
                        -0.18845454777433557,
                        0.14260958549293598,
                        0.07381349694051677,
                        -0.25377578977633075,
                        0.07201612387156253,
                        0.22925831897488708,
                        0.09825462091384497,
                        0.32969966623181607,
                        0.0788103518857215,
                        0.03914008567976754,
                        0.031753489579826995,
                        -0.0636820588985615,
                        -0.10561038920942217,
                        -0.09989633387770291,
                        0.0020951718970828406,
                        0.08197288190601666,
                        -0.26956875490863047,
                        -0.07454917892101048,
                        -0.10196259598734925,
                        -0.35869381357134633,
                        0.13738907076095214,
                        0.3069360562927543,
                        0.324165270196406,
                        0.5515574929138561,
                        0.007528126707247739,
                        0.15111852052314828,
                        0.04472408298428789,
                        -0.039295575967137564,
                        -0.1311700412095787,
                        0.16201642442579997,
                        -0.026072418507048514,
                        0.04989718207081863,
                        -0.03445754764473644,
                        0.039286855894970905,
                        -0.19637428374567828,
                        -0.2776684052531042,
                        0.21620350477235323,
                        0.17290299180195995,
                        0.394450530608497,
                        0.25057750753265773,
                        0.1452062256741667,
                        0.1908300869019058,
                        0.21162307543152278,
                        -0.06258970190571993,
                        -0.19189160630767582,
                        -0.17122008875872052,
                        -0.29988364359626896,
                        -0.1405459793362117,
                        -0.2172426549642518,
                        -0.07154967211678487,
                        0.1503316536950353,
                        -0.314775001003211,
                        0.13166898564220023,
                        0.027234620953585965,
                        -0.060731861761056834,
                        0.24104793136987923,
                        0.13295728445413096,
                        0.1780633228276579,
                        -0.05241098532046592,
                        -0.08305080321407299,
                        -0.043153232500220115,
                        -0.14956137134842348,
                        -0.19112991260633774,
                        -0.23942476178992594,
                        -0.20189899489533172,
                        0.22661380706072512,
                        0.3770420836360714,
                        -0.005876163945345575,
                        0.020803209370343585,
                        -0.02596520561862544,
                        0.15248035455800932,
                        -0.024676335762252078,
                        0.11829631993972364,
                        0.04718701963744709,
                        -0.07225048457054499,
                        -0.013967626026097333,
                        -0.014271482413377414,
                        -0.17652312645176518,
                        -0.23605413536413875,
                        -0.19716173798252729,
                        -0.19129153273053892,
                        -0.32537174470858443,
                        0.12312913307464678,
                        -0.06647249952522928,
                        0.20691526118980025,
                        0.262724811279527,
                        -0.06200102197865334,
                        0.15538272908762335,
                        0.12743686423124648,
                        0.17531122302237917,
                        -0.12812301203100365,
                        -0.23842121224174095,
                        -0.11243002781011585,
                        -0.19383820870092658,
                        0.005469078964486727,
                        0.012948069448644123,
                        -0.2271994083556165,
                        -0.02996950190517632,
                        0.2326362615025701,
                        -0.09697254060399617,
                        0.030298170271534027,
                        0.23936193352307933,
                        0.027939827062040946,
                        0.22142455698949365,
                        0.1319755354933852,
                        0.06684719615813259,
                        0.15254872307981582,
                        -0.24615157011772665,
                        -0.060563540050996297,
                        0.1619258117066113,
                        0.09295747602965962,
                        0.3203059082502751,
                        0.30277425779893535,
                        -0.05791916700859831,
                        0.007736173009855147,
                        -0.13374764257025953,
                        0.19202578899700282,
                        0.17048150020306974,
                        0.07988851607328552,
                        0.02528107818673842,
                        -0.0017270631121022624,
                        0.09329981978950626,
                        -0.021599429339617355,
                        -0.28192587414817893,
                        0.013702107988918025,
                        0.00727833121240766,
                        0.14483247537100954,
                        -0.048190432626940574,
                        0.2913623661320395,
                        -0.12411932922280898,
                        -0.2955173049149326,
                        -0.5104369198245271,
                        -0.07534177346261466,
                        0.15003170297248686,
                        0.17012995882243753,
                        -0.010208307165691072,
                        0.014515991715089339,
                        0.04740721286261907,
                        0.10557859606318361,
                        0.0854096641084992,
                        -0.1684099366610992,
                        -0.02010234844859099,
                        0.19151699457209997,
                        0.017514202095318634,
                        -0.10412653809829889,
                        -0.023649144680631257,
                        0.013279339460271506,
                        -0.24480593284270524,
                        -0.21327018927810323,
                        -0.3806965453550539,
                        -0.0666305953772535,
                        0.0951203178192073,
                        0.037820510742796874,
                        0.05992671510078436,
                        0.025539854143694172,
                        -0.02906200669148816,
                        0.04112407576989145,
                        0.07346747012158478,
                        -0.17604753973082718,
                        -0.04119542938568818,
                        -0.1210061106513804,
                        0.022425166901245668,
                        -0.16386077646875044,
                        -0.12325105948654125,
                        -0.17413058491149244,
                        -0.04285400132501745,
                        -0.07880040972914937,
                        0.20568414489374587,
                        0.019259565484917193,
                        -0.03320775782733239,
                        0.054045925410930756,
                        0.08563679212270635,
                        0.09458867866928271,
                        0.00743810988415468,
                        -0.020439634846400004,
                        -0.003502653138531408,
                        -0.021474612478833012,
                        -0.04531944716045276,
                        -0.09482602798654628,
                        -0.05576792186518231,
                        -0.06277423466913207,
                        -0.07081813066954838,
                        -0.06313290049990601,
                        0.16761515747470315,
                        0.17790888047788375,
                        0.09312473945532959,
                        0.006569646613626329,
                        0.12095556505596196
                    ],
                    "ActivationFunctionClass": "DotML.Network.HyperbolicTangent, DotML, Version=1.0.0.0, Culture=neutral, PublicKeyToken=null"
                },
                {
                    "Bias": 0.021584857220190642,
                    "Weights": [
                        0.16110082269482517,
                        0.16564880258104653,
                        -0.08008039827804664,
                        -0.06683359086854727,
                        -0.18944857213277033,
                        0.03968773108863575,
                        -0.1849120597318014,
                        -0.1295303023477876,
                        0.07901856708612179,
                        -0.15032882090484764,
                        -0.10591538464244941,
                        0.09262965977331042,
                        -0.050764868496043766,
                        0.017391595303180026,
                        0.10864049738248224,
                        -0.010237375460297753,
                        0.14948128485320294,
                        0.0680867962407346,
                        -0.042592767878966306,
                        0.1495440592012694,
                        0.2257038814669751,
                        0.19616256492745435,
                        0.29586730105386694,
                        0.241807464177989,
                        0.020667324175578018,
                        0.1644893650002702,
                        0.18190835431648053,
                        -0.11563295225112732,
                        -0.020503184856333893,
                        -0.07751198542621719,
                        -0.20194510947301253,
                        -0.09077344716257241,
                        0.10016682731522726,
                        0.015767479484387843,
                        0.2659072420510901,
                        0.13556869651876172,
                        0.15321507993401115,
                        0.400208644842503,
                        0.25821131298105066,
                        0.12964569307359977,
                        0.21710973887907256,
                        0.14881472494517597,
                        0.23418870903680603,
                        -0.19070653847499217,
                        -0.10297007224577737,
                        -0.2472269630657825,
                        -0.1880409279911021,
                        0.0879706086294978,
                        -0.08626310422632329,
                        0.11317146999797607,
                        0.114886525743134,
                        0.0864734467608585,
                        0.23546452923599862,
                        0.3818204662856234,
                        -0.021893063892070422,
                        0.24302497815882473,
                        0.1989530327443298,
                        0.20947902562402565,
                        -0.08537227517761499,
                        -0.17884006823845844,
                        -0.028659357835922848,
                        -0.10192383543372903,
                        0.20755064063362136,
                        -0.021715183430853317,
                        -0.07872430283649455,
                        -0.033533050402789914,
                        0.18805549981929773,
                        -0.21450971010893047,
                        0.21680448404188188,
                        0.3578261480135397,
                        0.30625875193494845,
                        0.3442848935947949,
                        0.24191143630951764,
                        0.05676030951954027,
                        -0.2886456971406955,
                        -0.06164026216582834,
                        -0.03269052530040797,
                        0.029321231985546484,
                        0.13470269450874983,
                        0.007709551729197193,
                        0.009420307063874972,
                        -0.006660964056355893,
                        0.3838470264932627,
                        0.11456063756138996,
                        0.2901906127571661,
                        0.06122241239251544,
                        0.6659953702994125,
                        0.10552015846989132,
                        -0.27548775897947153,
                        -0.13013457275237408,
                        -0.2093761655579792,
                        0.30127722776599525,
                        0.11447060486585335,
                        0.049877342640052946,
                        -0.015096266808681707,
                        -0.11999576532984886,
                        0.04019032944023643,
                        0.16603004800949317,
                        0.24583980117756735,
                        0.09671437895824671,
                        0.3718601049727439,
                        0.11824511216287698,
                        0.2217828673825083,
                        -0.08048603534367865,
                        -0.29444663038983554,
                        -0.12931164086123947,
                        -0.36714186701818036,
                        0.1616943326771976,
                        -0.26432144006049657,
                        -0.13895944617954245,
                        -0.11232808018569422,
                        -0.0037560318046516265,
                        -0.07763061264470845,
                        -0.13904564428613866,
                        0.13555700913497243,
                        -0.12614710733741738,
                        -0.14606028041952016,
                        -0.5134528888009297,
                        -0.2720751922952242,
                        -0.41935747945910085,
                        -0.3113493567590936,
                        -0.2387003513414059,
                        0.08510332111530812,
                        0.027842009335933848,
                        -0.02751285277372957,
                        0.1605416488679142,
                        -0.17934916490049702,
                        -0.07134517846930076,
                        0.0009141809221502478,
                        0.0017837589446517426,
                        -0.12761639748861608,
                        -0.10350041910808297,
                        -0.2978301695917389,
                        -0.19405592373828864,
                        -0.3148308556275544,
                        -0.011727333060202011,
                        0.2737351354551443,
                        -0.2617300869762899,
                        0.1010277830751756,
                        0.028658472216573975,
                        -0.2822268262485953,
                        -0.23185870216056217,
                        -0.13368982814343705,
                        -0.017461876246642395,
                        0.06555677489884568,
                        -0.17227769872953283,
                        -0.21461985385053084,
                        -0.2565985551941658,
                        -0.5509378829084011,
                        -0.35358087055140236,
                        -0.3277817787995423,
                        -0.2879437598629331,
                        -0.18582397520522992,
                        -0.09608911026463185,
                        -0.2401870141904441,
                        0.1431118639049831,
                        -0.02048725370442912,
                        -0.16764355846906148,
                        -0.30799401124178144,
                        -0.03854417031651042,
                        -0.048378926070408654,
                        -0.21936025244003818,
                        -0.23995131258347988,
                        -0.44517853972814836,
                        -0.46392632830870995,
                        -0.19924536399716286,
                        -0.13786049018514293,
                        -0.07684168067773302,
                        -0.03225453339304035,
                        0.10297147000400417,
                        0.2854212517217162,
                        0.07094727850596931,
                        -0.06301993486915893,
                        -0.13900561773640435,
                        -0.3673573006199841,
                        -0.08925913027977266,
                        0.0009027324069921746,
                        -0.05690255327816246,
                        -0.11250129749267025,
                        -0.17096542059479292,
                        -0.13194203642733393,
                        0.0787463054500416,
                        -0.45155629759847005,
                        0.09666345871567933,
                        0.20782325210231173,
                        0.4452486349852149,
                        0.8449072272027119,
                        0.01157360479530096,
                        -0.1571974275428195,
                        0.1288495321356338,
                        0.11118031383377858,
                        -0.01144432184724876,
                        0.08439949434185008,
                        -0.212586939735695,
                        0.10354382763629968,
                        -0.18483791625992443,
                        -0.22996461648732647,
                        -0.49825085402191605,
                        -0.10967232519792455,
                        0.27341662458740584,
                        0.008685777259474047,
                        -0.06579766442727408,
                        0.4278720753476501,
                        0.47291350538076027,
                        0.07697509453999561,
                        0.31616662988639604,
                        -0.025084751296175194,
                        -0.04322366730280626,
                        0.009489074780271951,
                        -0.19511497774828426,
                        -0.13935537323614078,
                        -0.21052996640512092,
                        -0.23117887047203092,
                        -0.27388325113969947,
                        -0.04442121071441056,
                        0.15166778771878625,
                        0.3417566184644011,
                        0.08084185072735874,
                        -0.14747777843819806,
                        0.0005662808573842745,
                        0.08410228388863643,
                        0.38195815899191804,
                        0.18868464835113805,
                        -0.05973489355944808,
                        -0.08572667034714637,
                        -0.05263112401795278,
                        0.05418657068051018,
                        -0.10986046093859236,
                        -0.1042861380897934,
                        -0.22307918529119436,
                        0.0020108372670410365,
                        0.2143555490591063,
                        0.24004427414715787,
                        -0.14720579001824635,
                        -0.02863058553608942,
                        0.1651155840752041,
                        0.3030049837057243,
                        0.24460547328513066,
                        0.08590665123603572,
                        0.0787685171890386,
                        -0.04246816121544668,
                        -0.00020497472759924064,
                        -0.14308670863631512,
                        0.008983126665720398,
                        -0.11093501742100914,
                        0.04409099841698018,
                        0.019912235284164255,
                        0.09343323174235055,
                        -0.1826197434309565,
                        0.08459712532852146,
                        0.1603810304863868,
                        -0.06432327440963355,
                        0.07463704791030358,
                        0.06795656841828623,
                        0.08607732138787091,
                        0.038301820593433206
                    ],
                    "ActivationFunctionClass": "DotML.Network.HyperbolicTangent, DotML, Version=1.0.0.0, Culture=neutral, PublicKeyToken=null"
                },
                {
                    "Bias": 0.03495546775677806,
                    "Weights": [
                        0.10737380697024551,
                        -0.03386935028928434,
                        -0.052440303085019485,
                        0.07225102109442061,
                        -0.15701236954536119,
                        -0.020376165763069314,
                        -0.10397267109494625,
                        -0.12163816396954809,
                        0.06909321142127216,
                        -0.07195184118730158,
                        0.023192202106976017,
                        0.023435833491272186,
                        -0.05711841168231431,
                        -0.04685514142463057,
                        -0.09612613995324504,
                        -0.0405599538927033,
                        -0.02870901454113407,
                        0.1576485174445997,
                        -0.12372087439140911,
                        -0.023234633692676733,
                        0.07114257940513657,
                        0.14694575270715116,
                        0.22923996393587248,
                        0.216903200503243,
                        -0.07973422561843357,
                        0.2424239072168766,
                        0.14388571660218524,
                        0.08577825252298585,
                        -0.1480202653967744,
                        -0.03401242633810249,
                        -0.1783914930327826,
                        0.03527735848462227,
                        -0.02094048387361775,
                        0.06025858180336153,
                        -0.012618843241232866,
                        0.021153826380056768,
                        0.15455911652344265,
                        0.448520927784066,
                        0.17121414592977083,
                        0.21597167224462532,
                        -0.0329701046688592,
                        0.2416040690169508,
                        0.18153048715566295,
                        -0.2743587037254285,
                        -0.36251989307541754,
                        -0.19718535824106984,
                        0.10257208637802398,
                        0.04744985027426614,
                        -0.0701576529327119,
                        -0.0808871377230055,
                        -0.051549526754068604,
                        0.3047564707349691,
                        0.012741628419623015,
                        0.14443674575371301,
                        0.4296938497026496,
                        0.08134447381975861,
                        -0.08287533266174732,
                        0.3036304850382491,
                        -0.08469440919643767,
                        -0.13353547010725025,
                        0.07963766357910995,
                        0.29422658613478375,
                        0.19780431554921762,
                        0.020048560252075687,
                        -0.06741699417314523,
                        0.05784167968703992,
                        -0.013727888297916692,
                        0.2365958077143053,
                        -0.13459690668121846,
                        -0.1426309787650557,
                        0.02334948817076829,
                        -0.034765399753960015,
                        0.34957556943291646,
                        0.8076222063387477,
                        -0.16252701141359654,
                        0.2936666264793313,
                        0.33009302327963397,
                        0.21566363585831022,
                        0.007860804136314204,
                        0.11204707864446277,
                        -0.21825541328073925,
                        0.07878299265254955,
                        0.07346679416918794,
                        -0.34056599016251793,
                        0.1304235083381527,
                        0.12524751004458196,
                        -0.15998802614661506,
                        -0.2404984696482987,
                        -0.2841719109784171,
                        0.20499108203319366,
                        0.6324624734135006,
                        0.395808277654902,
                        0.5236734736259118,
                        0.15333030923188518,
                        0.0008128626669067672,
                        -0.012358731281808638,
                        -0.009497393199683095,
                        0.03594422405846944,
                        0.07134712777358286,
                        -0.025812860787358092,
                        -0.053373346318595506,
                        0.0015201840135161792,
                        -0.5033170904248734,
                        -0.40303442413625407,
                        -0.11017347394402591,
                        0.5962730362356635,
                        0.5005087899566383,
                        0.48449904393006016,
                        0.497012990124014,
                        -0.06770677081394158,
                        0.055636786462671346,
                        0.03800141887937694,
                        0.1145331844818518,
                        -0.0519164232489274,
                        0.04444622367180203,
                        -0.22163285807724864,
                        -0.321392149118945,
                        -0.60085959463862,
                        -0.3709720507193404,
                        -0.8490110780972056,
                        -0.1857360756274126,
                        -0.14727367434106353,
                        0.14748976151509424,
                        0.16509610951124856,
                        0.2317080946880386,
                        -0.09384274128788986,
                        0.1117376009595914,
                        -0.0623940216871639,
                        0.0306062762233542,
                        -0.005898345045002004,
                        0.1547848503716607,
                        -0.3937613518167304,
                        0.05838473957888088,
                        -0.0102944196030836,
                        -0.24212993930118432,
                        -0.42412701468733477,
                        -0.14661025979210307,
                        0.21683821262902112,
                        0.037215194754487174,
                        0.38220775670238594,
                        -0.09433321316762353,
                        0.05137576044470661,
                        0.04827211430386197,
                        -0.2026229031148072,
                        0.08486056661372689,
                        0.2126805248923083,
                        0.006077011632777187,
                        -0.04245915931959267,
                        0.08696992448444091,
                        0.1200558304582019,
                        0.15072650410322488,
                        0.4371407229192683,
                        -0.20207914768500002,
                        0.024938647750552764,
                        -0.013062331815684532,
                        0.12775270310602593,
                        0.025743726799199493,
                        0.13189697762734076,
                        -0.014916212576737118,
                        0.018295050972481425,
                        0.04666797739659963,
                        -0.09315687211545697,
                        0.06528828014684765,
                        -0.09646821897155639,
                        0.08996238745759474,
                        0.381502119499685,
                        0.041087750413712126,
                        -0.21388080046736677,
                        -0.15251793164960883,
                        -0.30378103161178804,
                        -0.337062533117301,
                        -0.11854296558827666,
                        0.11425863340675213,
                        0.017009228346631315,
                        -0.07099241324064019,
                        0.054683703806724264,
                        0.07436761775268207,
                        -0.09718501344437006,
                        -0.11718281312847731,
                        -0.12484929807342074,
                        -0.4183616189761682,
                        -0.3159397164512254,
                        -0.3453257011802901,
                        -0.6361675367312902,
                        -0.14608990622958945,
                        0.08711858015401158,
                        -0.03235585854580458,
                        -0.34077328914237426,
                        -0.18223758652502167,
                        0.1333502197619117,
                        0.2155939511451128,
                        0.034493392886161836,
                        0.03315137697965774,
                        -0.09514912965701085,
                        -0.16092255645969336,
                        -0.40647724495511006,
                        -0.226187835130872,
                        -0.4808102501976682,
                        0.19759591409490943,
                        0.14692942872493633,
                        -0.17429671975526295,
                        0.013887616695789588,
                        -0.2765726861542341,
                        0.26666627971880064,
                        -0.01650262146255602,
                        0.0448556854397789,
                        0.14362003460873324,
                        0.06670273038145531,
                        -0.07990747366662757,
                        0.03165210592600645,
                        -0.13241719474870378,
                        -0.35530274501355996,
                        0.05069862334979518,
                        -0.11544705171399892,
                        0.04913903301304452,
                        -0.07668190074603506,
                        -0.18192307375842157,
                        -0.28283614226462817,
                        -0.26567021337880686,
                        0.03169859711685033,
                        -0.22529859872090283,
                        -0.1463203769895323,
                        -0.07908478953326539,
                        0.00019023392514022226,
                        -0.07242442200423968,
                        -0.057825087074369286,
                        -0.12636157239089443,
                        -0.11109610122278456,
                        0.05419599447710735,
                        -0.13719168575885535,
                        -0.15732989926950086,
                        0.25338847943468457,
                        0.07338456583927722,
                        0.10665186433262801,
                        0.1605795066070907,
                        -0.0006123472982497819,
                        -0.15230455522222563,
                        -0.03414911293565792,
                        -0.01719331165197222,
                        0.008534157750034202,
                        0.00037199799320651144,
                        -0.11319519041778486,
                        -0.0409295146734035,
                        -0.017778989374603708,
                        -0.07110651328926267,
                        -0.1133089672372817,
                        -0.04176988898709187,
                        0.016407275574800265,
                        -0.06779641271961279,
                        -0.06640986260178422,
                        -0.012991152053005179,
                        -0.022184294518058575,
                        -0.000604387184595583,
                        0.1448229559347566,
                        -0.04125862174034215,
                        0.020670327517946074
                    ],
                    "ActivationFunctionClass": "DotML.Network.HyperbolicTangent, DotML, Version=1.0.0.0, Culture=neutral, PublicKeyToken=null"
                },
                {
                    "Bias": 0.007415854274799935,
                    "Weights": [
                        0.0724530169555771,
                        0.07655471489242616,
                        -0.015060855640399707,
                        -0.0013770391635367098,
                        -0.07280495404433725,
                        -0.06132200121907956,
                        0.015483127847849266,
                        0.004642088402402355,
                        -0.08636107810330265,
                        0.040862835656324786,
                        0.08339825861281461,
                        0.05008366152390228,
                        0.03190606254408226,
                        0.027299345714819442,
                        0.005815113107595324,
                        0.048294986634025906,
                        0.12142349746019356,
                        0.38524869723074945,
                        0.30967507642389924,
                        0.18663646776941842,
                        0.17955901831311916,
                        -0.06833879218639925,
                        0.07706976402635102,
                        -0.2386086172076004,
                        -0.041393152943168365,
                        -0.11331993802728146,
                        -0.042156882816641046,
                        -0.06713698579483489,
                        0.0798505024404722,
                        0.008665839383797707,
                        0.10633486847855465,
                        0.13192981562987705,
                        -0.1536918149096081,
                        0.2531254524663997,
                        0.37133986108227574,
                        0.42021490529713906,
                        0.2305167974438659,
                        -0.03261257510282854,
                        -0.19187235001533104,
                        -0.24045924593286194,
                        -0.24505376439440094,
                        -0.18519696412147302,
                        -0.09220827315598337,
                        -0.030355026443928512,
                        -0.0973729758693563,
                        0.08625877424950444,
                        0.00464017031004141,
                        -0.001371990434141117,
                        -0.1110879667524995,
                        0.009591878047520761,
                        0.3373888349377193,
                        0.26634609004061227,
                        0.35326947610404574,
                        0.2090652916124533,
                        -0.049139933791687206,
                        -0.4649137324244834,
                        -0.30392414926459754,
                        -0.17500652332643668,
                        -0.014669248058754237,
                        -0.017061706177975002,
                        -0.05040882469400005,
                        0.04281159362282393,
                        -0.059569739840909804,
                        0.15910836361286024,
                        0.0075066945648839655,
                        -0.08245820488427827,
                        0.14806644945370417,
                        0.20242139327100075,
                        0.2829662663920812,
                        0.46015042817754276,
                        -0.20759604993787853,
                        0.019783895262810682,
                        -0.24346174684706717,
                        -0.19881987581100263,
                        0.011119236545865342,
                        0.04444959410708698,
                        -0.017978746839301042,
                        0.061946589697179255,
                        -0.011610657867640305,
                        -0.10363193685368954,
                        0.11228782163282931,
                        0.008586780927700988,
                        -0.13407979378358037,
                        -0.043157326809123965,
                        0.17878648664195312,
                        0.3978186634364662,
                        0.17790804287026843,
                        -0.29125547463471346,
                        -0.11432222706269728,
                        0.20033819594884267,
                        0.23000136131618618,
                        0.11811635505644247,
                        0.3561333674112971,
                        0.26873212709258054,
                        -0.11201778446163614,
                        -0.02955702879220673,
                        0.01881663123945861,
                        0.04200401109443977,
                        0.0721191354627352,
                        -0.0008490596359135954,
                        0.32690469875889266,
                        0.4610357197760627,
                        0.040846927505311985,
                        0.12339940692367606,
                        -0.02566513069938501,
                        -0.020112628973502845,
                        0.03254133333507414,
                        0.09278680134526293,
                        0.03700526805119203,
                        0.21050221461106255,
                        -0.13501659908834593,
                        0.08646144948662814,
                        0.0336384788325057,
                        -0.037078974407025046,
                        0.3465800441221277,
                        0.06228520117773353,
                        0.24809091172225411,
                        0.3651929822885222,
                        0.08192452165656276,
                        -0.0882454125271871,
                        -0.13414672146591927,
                        -0.2794672965376935,
                        0.006880166831189174,
                        -0.10342377257202871,
                        0.016241779137457134,
                        -0.017918949769343242,
                        -0.04174103611614104,
                        -0.013243982430681986,
                        0.0594766298363837,
                        -0.04044396848869969,
                        0.3332219910820945,
                        0.05192734950228499,
                        0.18483164880138295,
                        0.5009455521965962,
                        0.015542541595914878,
                        -0.33689925521662584,
                        0.22036159277578335,
                        -0.1542918130187835,
                        -0.36048793195441525,
                        -0.21498892410955164,
                        -0.10000126280034735,
                        -0.005075091899941494,
                        -0.18312981305207446,
                        0.05194236286087463,
                        -0.023559140269397347,
                        0.10806352040376567,
                        0.21063432846750538,
                        0.14198143667943883,
                        0.121698857824111,
                        0.28599932022887925,
                        -0.35757207153715415,
                        -0.3306576740977069,
                        -0.0032833133836340125,
                        -0.2410983224258159,
                        -0.24632032576677737,
                        -0.2971760012541116,
                        -0.14047242860638676,
                        -0.20986470253768946,
                        -0.21860527013321043,
                        -0.08299275251847825,
                        -0.0518881819253105,
                        0.05678291483123443,
                        0.19236302156889248,
                        -0.13984540374279406,
                        0.134405965356826,
                        0.051319062103946274,
                        -0.021343190237563463,
                        -0.023421425573240038,
                        0.047699421856864356,
                        -0.010358908992650526,
                        -0.07157194153121042,
                        -0.21692394938916781,
                        -0.28512538540582344,
                        -0.22348839640792634,
                        -0.13466769235156648,
                        0.019152749978403456,
                        0.03882967368059666,
                        0.0007091433242892728,
                        -0.0226283641834573,
                        -0.17165121517134194,
                        -0.1570958856892988,
                        0.13340223459239403,
                        -0.12223166161496167,
                        -0.33576904272668884,
                        0.08203996079702268,
                        -0.004221728543559391,
                        -0.06443327947719675,
                        0.009540117483099245,
                        -0.01442812625714708,
                        -0.1765670396650511,
                        -0.09534102087504541,
                        -0.121482771011282,
                        -0.003144655904322434,
                        -0.08922986990303462,
                        -0.1568602963438067,
                        -0.1756042545497466,
                        -0.006666960117034105,
                        -0.2280130010527909,
                        0.015889854763169793,
                        -0.1393018917837342,
                        -0.36667398975115234,
                        -0.11288287983297825,
                        -0.19684348003071545,
                        -0.2377333062510565,
                        0.026879704621200505,
                        -0.19545171325848232,
                        -0.12427885846567258,
                        0.09413463411205235,
                        -0.16081388611488578,
                        0.05830532523014214,
                        0.1066888698027595,
                        0.26447737760441953,
                        -0.01015961586689209,
                        0.019629298352146954,
                        0.1734379223107533,
                        0.014165679704992858,
                        0.19763327872620945,
                        0.10982847578198959,
                        -0.06790636126414648,
                        -0.09751057195486902,
                        -0.1396917479291725,
                        -0.20441454961416658,
                        -0.1557930144526734,
                        0.06204853778012326,
                        0.04454031639320178,
                        0.03476042237369518,
                        0.21042584778663803,
                        0.06652382076486817,
                        0.03603440922896166,
                        -0.1641630516272024,
                        0.06398431237666478,
                        0.0392249029141955,
                        -0.11852923051166801,
                        -0.24793365505152437,
                        -0.2614223571871332,
                        -0.22858496881549248,
                        -0.25529903834122514,
                        -0.1110888174974483,
                        -0.20855025895872287,
                        0.024624666114967036,
                        0.010349214124441952,
                        0.09951249748373221,
                        -0.10024113857543428,
                        -0.022058860822930317,
                        0.09812199657829866,
                        -0.04871184792967163,
                        -0.07786555919538084,
                        0.017604179526331018,
                        -0.003352122823775265,
                        0.09437347115569632,
                        -0.07310883904389394,
                        -0.14530503721844548,
                        -0.13597142732321774,
                        -0.0005184428573184287,
                        -0.1653409733674595,
                        -0.03436535006225439
                    ],
                    "ActivationFunctionClass": "DotML.Network.HyperbolicTangent, DotML, Version=1.0.0.0, Culture=neutral, PublicKeyToken=null"
                },
                {
                    "Bias": -0.0201248584687231,
                    "Weights": [
                        0.015162876782941401,
                        -0.03296574738469835,
                        0.017662424757212112,
                        -0.04919773692557603,
                        -0.07682724244490112,
                        -0.06433110013445548,
                        -0.10597744160769151,
                        0.0016755619311394393,
                        0.04193851008015414,
                        0.0017401731479692842,
                        0.09566604507011811,
                        0.16796832974701006,
                        -0.006490025503831288,
                        -0.10419236617529308,
                        -0.01773994117743017,
                        0.07101540092488794,
                        0.19066086743238367,
                        -0.18426703428668062,
                        -0.07952053110789128,
                        -0.10541423692582402,
                        0.03457089058653877,
                        0.10082680417963151,
                        0.1272041113624503,
                        0.13843772150073264,
                        0.13706508767850223,
                        -0.007833570792385412,
                        0.10995613547603804,
                        0.18375749868070765,
                        0.10757492851026301,
                        0.290604569791383,
                        0.07357565760231792,
                        -0.06423000068761656,
                        0.10318628829110235,
                        -0.30313783571583314,
                        -0.1521801391099324,
                        -0.16817656093363134,
                        -0.2477462898880413,
                        -0.014224859711803393,
                        0.07360137734257767,
                        0.05448999235014317,
                        0.025969024771392794,
                        0.19776687833409,
                        -0.11972357534548313,
                        0.043772605277784316,
                        0.21768014798307223,
                        0.07881041589836048,
                        0.28482740004353124,
                        0.07231130918280912,
                        -0.06954400460474841,
                        0.04475376595436905,
                        -0.11837145811133776,
                        -0.27495352809954127,
                        -0.4599252918716622,
                        -0.07544340536347464,
                        0.1865128263137634,
                        -0.06351485073403944,
                        -0.0608810826390239,
                        -0.1487799891626121,
                        0.16087989201236397,
                        0.17306210157824173,
                        0.1275805237143575,
                        0.0386421229145221,
                        -0.16557051907492168,
                        -0.10420036561842558,
                        0.0656456149597576,
                        0.08332282661861604,
                        0.18918354677986174,
                        0.20874251728690946,
                        -0.4694693499465417,
                        0.12310865920704023,
                        0.3587647070000635,
                        0.3155892997787912,
                        0.06268864942722228,
                        -0.03758280551321272,
                        0.3405293260061315,
                        -0.029287618080019024,
                        -0.05904583595591392,
                        0.07383385791235099,
                        -0.040702806536800175,
                        -0.07664161498448238,
                        0.04142131724302789,
                        0.11721578764169288,
                        0.15623026196838577,
                        0.12844595641859913,
                        0.04069814565156299,
                        0.4351008122205793,
                        0.11991967030180789,
                        -0.07656277443265437,
                        -0.19157641375742845,
                        -0.502137054247771,
                        -0.10116165807908614,
                        -0.16029855398055085,
                        -0.040135924285894756,
                        -0.016787329912238174,
                        0.10485596762896984,
                        -0.05376112320459518,
                        0.027461704650351772,
